\data\
ngram 1=5888
ngram 2=22202

\1-grams:
-4.366388	<unk>	0
0	<s>	-1.8401064
-1.246667	</s>	0
-2.341518	r	-1.2431872
-2.1392193	spigot	-1.239938
-1.6854047	outlet	-2.1856642
-3.1665916	openpanel	-0.6375493
-1.726122	msg	-1.1570266
-1.7574164	t	-1.35656
-1.6035659	s	-2.199622
-2.7016714	inlet	-1.2999175
-1.6873047	canvas	-1.3131464
-3.0425773	line	-0.6854277
-3.1126688	min	-0.34910816
-1.9447699	route	-1.2607629
-3.636388	notein	-0.7106645
-3.2625792	poly	-0.6304975
-2.9822416	gate	-0.65142846
-3.1126688	r~	-0.7850815
-4.112241	ambi_rotate_z_4o_3d~	-1.5844141
-2.9822416	mtx_*~	-1.6504717
-3.1665916	multiline~	-1.8588489
-2.0742517	throw~	-1.9720031
-2.6210632	loadbang	-1.2546496
-3.5590265	poftexts	-1.4528763
-2.1365323	text	-1.127207
-2.1906655	sel	-1.3683417
-2.401275	/	-0.9223804
-3.1126688	catch~	-1.4926244
-3.7305827	TrancheConsole_abs	-2.8027222
-3.436373	\$0	-0.9740603
-1.7947853	print	-1.7326092
-2.9462228	tabread	-0.6435514
-2.3205595	+	-0.9770515
-1.539447	floatatom	-1.2547568
-2.3773088	hsl	-0.92774236
-3.2281716	tabsend~	-1.4382862
-2.9129636	random	-0.8275464
-2.4943476	select	-1.2790751
-4.242692	sensel	-0.71128744
-2.0673444	unpack	-1.2056167
-4.242692	basicvoice	-0.16806784
-2.8820715	output~	-1.3137568
-2.2814527	f	-1.2702665
-3.436373	gemwin	-1.2796805
-4.112241	gm-channel	-0.6813242
-3.196291	receive	-1.277875
-2.7766829	array	-0.9004085
-2.6639884	demux	-1.1652358
-4.112241	ctxfiles/asynch	-1.2675899
-2.7651405	inlet~	-0.89457405
-2.9129636	-~	-0.91685814
-2.6824212	delwrite~	-1.6925629
-2.897243	bang	-0.53560287
-2.0836358	pack	-1.3563268
-3.7305827	c_cpfade	-0.29338807
-1.6195601	outlet~	-2.1655536
-2.6919396	symbol	-1.0371996
-4.242692	namecanvas	-0.16806784
-2.4764059	cnv	-1.3793981
-2.813273	list_trim	-0.9612209
-3.7305827	ctlin	-1.0401372
-2.3963747	vsl	-1.2727797
-4.242692	gui.browser	-0.23027262
-3.4933841	noise~	-0.51469886
-2.5461655	hip~	-1.0305526
-1.6253002	*~	-1.2386564
-2.071937	dac~	-1.7595574
-2.277729	+~	-1.1459321
-2.7429373	v	-0.95168173
-3.4933841	mtx_mul~	-1.1995182
-4.242692	rj/u_cocollect	-0.16806784
-3.0880263	biquad~	-0.6773244
-2.4480584	env~	-0.8719212
-2.256033	*	-0.9966299
-2.300566	s~	-1.6501822
-2.7538972	delay	-1.2845526
-2.100562	tgl	-1.1430023
-1.9447699	bng	-1.1298758
-4.242692	randi	-0.16806784
-2.711626	osc~	-0.72822845
-4.112241	vas_binaural~	-0.4483158
-4.242692	vas_hpcomp~	-0.26507026
-3.1665916	\$1	-0.6813806
-3.0215201	%	-0.63268375
-4.0182853	<,	-0.43828616
-2.6293156	tabwrite	-2.3960469
-2.4535818	list_prepend	-1.2465436
-4.112241	uzi	-0.2537468
-2.4764059	expr	-1.0481229
-2.4372177	declare	-0.79004776
-3.436373	bob~	-0.39542687
-4.242692	mix_mux_24~	-0.73931617
-4.112241	d-8loop~	-0.16806784
-3.636388	chair.gain~	-0.19364437
-3.2625792	vd~	-0.45420346
-2.4943476	change	-0.8985592
-4.242692	abl_link/external/abl_link~	-0.23466094
-2.341518	nbx	-0.94467336
-3.385985	spam~	-0.46748987
-4.112241	samp	-0.43828616
-2.9822416	vradio	-0.67767227
-3.0647075	routeOSC	-0.88783526
-3.8510334	#store	-0.21386641
-3.2625792	#out	-0.8236221
-4.0182853	hoa.2d.process~	-0.21386641
-3.7305827	TrancheConsole-NoVu_abs	-2.587967
-4.0182853	TrancheConsole-NoVU_abs	-1.5174674
-2.813273	translateXYZ	-0.6733255
-2.9638588	rectangle	-1.3104504
-2.7016714	list_append	-1.0985788
-2.8394995	hradio	-0.70910996
-3.2999492	netsend	-0.91694874
-2.8394995	switch~	-1.2393036
-3.636388	pix_freeframe	-1.0403461
-2.813273	list_split	-0.9571765
-2.711626	metro	-0.81477064
-3.34084	until	-0.7290093
-4.112241	ambi_rotate_z_3o_3d~	-0.83622617
-3.34084	readsf~	-0.79587793
-2.6919396	list	-0.9438887
-4.0182853	mix_\$5_48~	-1.7112874
-4.0182853	abl_link~	-0.66872424
-3.5590265	comport	-0.4464017
-3.196291	knob	-0.42354807
-3.636388	gemframebuffer	-0.9586911
-2.6550572	pix_texture	-0.7510197
-4.242692	snapStrip	-1.4160098
-3.8510334	sdPackFilter	-0.26982665
-4.242692	fmramp2~	-0.16806784
-3.7305827	else/router	-0.23466094
-4.112241	else/message	-0.16806784
-4.0182853	fx_\$5_48~	-0.9154074
-4.242692	cdiv	-0.16806784
-2.8532317	mtof	-0.61963123
-3.7305827	loca.point	-0.27222455
-4.242692	loca.line	-0.16806784
-4.242692	ctxfiles/collect	-0.36913455
-3.385985	cyclone/zl	-0.38160434
-4.0182853	swap,	-0.23027262
-2.929275	float	-1.1044612
-3.636388	cyclone/iter	-0.45122445
-2.897243	makefilename	-0.84633625
-2.574594	send	-1.5085949
-3.8510334	dumpOSC	-0.64400935
-3.2999492	OSCroute	-0.4897248
-4.112241	ctxfiles/l-p	-0.73931617
-4.242692	pix_lumaoffset	-0.16806784
-3.636388	zexy/demultiplex	-0.32034338
-3.5590265	cyclone/coll	-0.31781083
-4.242692	maxlib/remote	-0.16806784
-3.8510334	colourRGB	-0.30160773
-3.385985	text2d	-1.3275878
-2.7218144	i	-0.73384196
-3.1665916	tabread4~	-0.8238675
-3.5590265	c_urn	-0.47203785
-4.242692	VHPdataReceive	-0.4483158
-2.6293156	snapshot~	-0.7814744
-4.242692	rc-minimoog~_	-0.16806784
-2.8007305	expr~	-0.6151429
-3.8510334	submatrix4~	-1.3280264
-3.8510334	submatrix5~	-0.76050544
-4.0182853	submatrix6~	-1.1255174
-4.0182853	submatrix10~	-1.3275878
-4.242692	rec2	-0.16806784
-3.8510334	msgfile	-0.38395587
-2.506734	-	-0.95504546
-4.0182853	sendOSC	-0.98834413
-4.242692	countto	-0.16806784
-3.7305827	mx-insert-container	-0.62036735
-4.0182853	gesturenode	-0.7115572
-3.34084	packOSC	-0.67464125
-2.8394995	line~	-0.9473526
-3.196291	pan~	-0.3575513
-4.0182853	samplelooper~	-0.6478882
-4.242692	OUT/BUS/catch~	-1.1033978
-2.897243	sig~	-0.5430966
-4.242692	nanokontrol2-channel	-0.16806784
-4.0182853	np_nifalcon	-0.5351962
-4.0182853	sssad/sssad	-0.20431216
-4.242692	greaterLess	-0.43828616
-2.5531	symbolatom	-0.9342776
-3.5590265	outlet,	-2.105739
-3.8510334	step	-0.3628913
-3.2281716	pix_film	-0.54175496
-3.7305827	stepsekT,	-0.98235416
-2.6210632	==	-0.9072034
-4.112241	gswitch~	-0.26507026
-4.242692	modules/ut/default/module	-0.43828616
-2.9129636	b	-0.8285666
-3.001437	pipe	-0.807112
-2.8820715	clip	-0.70387834
-3.2625792	text3d	-1.0318924
-3.4933841	sigmund~	-0.28371003
-3.385985	mux	-1.1231878
-4.112241	tcpserver	-0.53408015
-4.242692	encodingconverter	-0.16806784
-3.5590265	sendreceive	-0.27660632
-3.0880263	gemhead	-0.5339323
-3.34084	spigot-toggle_red	-0.7433049
-4.112241	within-multiple	-0.73931617
-3.636388	matrix	-0.2251582
-4.242692	invert-ampdel	-0.26507026
-4.242692	colourDelay	-0.16806784
-3.7305827	hml_shelf~	-0.26060614
-4.242692	\$3_early2_encode_2o_3d~	-0.26507026
-2.9462228	>	-0.58201283
-4.112241	mkmr.fi.resonator	-0.26507026
-3.636388	arduino	-1.4169122
-2.9462228	max	-0.6233049
-4.112241	sp-hub~	-0.26507026
-3.8510334	svf~	-0.16806784
-4.242692	fx/4mod-delay	-0.16806784
-4.242692	vibrato	-0.16806784
-2.897243	spigot~	-0.47693482
-4.242692	framesync/fstabplay~	-0.83622617
-3.34084	rev3~	-0.4514603
-4.112241	filter	-0.7115572
-4.0182853	meter~	-0.23027262
-3.385985	adsr	-0.26659843
-3.8510334	netpd-s	-0.7904687
-4.112241	pdp_freeframe	-0.83622617
-3.8510334	netreceive	-0.8333233
-3.196291	freeverb~	-0.59835416
-4.112241	pdcontrol	-0.2331932
-3.5590265	udpreceive	-0.8126446
-3.1665916	unpackOSC	-0.69553834
-3.2625792	0	-0.48238537
-4.112241	siglfo~	-0.9501695
-2.9638588	send~	-1.3960289
-2.813273	trigger	-0.6255555
-4.242692	ofLoadVec2f	-0.16806784
-3.8510334	ofPrepend	-0.20431216
-4.112241	zirk_vbap	-0.23027262
-4.0182853	abs/dmux	-0.28937414
-3.2625792	soundfiler	-0.86358464
-4.242692	iemlib/bpe	-0.26507026
-3.2281716	shunt	-0.31246328
-4.242692	bonfire-bin/get-note-dur	-0.16806784
-4.242692	bonfire-bin/delay-module~	-0.16806784
-3.8510334	ad~	-0.73931617
-4.112241	avgORsnap	-0.57658887
-4.242692	onoff7x	-0.43828616
-3.2281716	spigot-toggle_orange	-1.007626
-4.242692	fd_clicktrack	-0.16806784
-4.242692	\$1fdbk_matrix24~	-1.2164373
-4.242692	interpolation-5p	-0.23027262
-4.242692	wavebank~	-0.16806784
-4.112241	mixpan~	-0.16806784
-4.112241	neuron~	-1.3417511
-3.636388	matrix_mul_stat~	-0.9703386
-4.112241	pdmus/midi-learn	-0.5732546
-3.385985	maxlib/scale	-0.33908993
-4.112241	fx_gain_48~	-1.1886785
-4.242692	receive_pluginparam	-0.16806784
-4.242692	unsymbol	-0.16806784
-2.6377277	int	-0.7168807
-4.242692	channel-out-control	-0.7904687
-3.436373	channel-out~	-1.0124779
-4.112241	mm_monoSyncDelay	-0.86425483
-2.5972073	lop~	-0.8323048
-2.929275	ctlout	-1.4753581
-3.34084	fiddle~	-0.6243749
-3.7305827	stepsekT1,	-1.0666751
-4.242692	data-start	-0.16806784
-4.242692	data-array	-0.16806784
-3.4933841	>=	-0.39392552
-4.242692	setSampleGUI	-0.16806784
-4.242692	list.shift	-0.16806784
-4.112241	ui.sliders	-0.16806784
-4.242692	factorOracle	-0.16806784
-4.112241	doku~	-0.26507026
-4.242692	param.atom	-0.20431216
-4.242692	include/sampler.play.guts~	-0.26507026
-4.112241	readanysf~	-0.3464891
-4.242692	faders3	-1.592101
-3.2625792	textfile	-0.8020086
-4.242692	mscale	-0.16806784
-4.242692	notefield_blink	-0.3133474
-4.112241	imageKnob380	-0.52171314
-4.242692	apf	-0.23027262
-3.1126688	value	-0.7822177
-2.9129636	phasor~	-0.6157881
-3.636388	e_scompress	-0.30160773
-4.242692	hh_tremolo	-0.16806784
-4.242692	switch-control	-0.23027262
-4.112241	urn	-0.6701645
-3.8510334	tempo	-0.16806784
-4.112241	pinknoise~	-0.26507026
-4.0182853	abs/smux	-0.9066741
-4.242692	fx_delay_5~	-0.16806784
-4.242692	pink~	-0.3133474
-3.0647075	poftranslate	-0.9648066
-3.34084	pofcolor	-0.9505003
-4.242692	else/count	-0.16806784
-3.0880263	else/display	-0.78886
-4.242692	Brane-e	-0.26507026
-4.242692	specFlatness	-0.16806784
-2.7885401	del	-0.9982891
-3.1665916	&&	-0.47394663
-3.5590265	hoa.2d.encoder~	-0.22715437
-4.112241	hoa.2d.scope~	-0.5351962
-4.242692	gl/p.rectangle	-0.27222455
-4.0182853	gesturenode-r	-0.6813242
-4.242692	../../bin/udpreceive	-0.26507026
-4.112241	udp2table	-0.3133474
-4.112241	ctxfiles/cx	-0.6813242
-4.0182853	k_aLine_1	-0.43828616
-3.2625792	circle	-1.0688428
-3.2281716	vline~	-0.8918401
-3.0215201	makenote	-0.82013464
-2.897243	noteout	-1.4848273
-4.242692	abs_granularsynthesis_particle2_s	-0.43828616
-4.0182853	TrancheConsole-Novu_abs	-1.5197234
-4.112241	setctl	-0.16806789
-3.436373	speedlim	-0.40864876
-3.8510334	lister	-0.9478714
-4.112241	scpprotocol	-0.26507026
-4.112241	mtx_rand	-0.3133474
-3.385985	mtx_print	-1.0123174
-2.9822416	writesf~	-0.9897511
-3.8510334	tickle~	-0.26507026
-4.0182853	p.vbap	-0.36913455
-3.1665916	adc~	-0.5142729
-4.242692	envy2	-0.16806784
-3.385985	list_store	-0.39015454
-4.242692	fm1	-0.43828616
-4.112241	float_argument	-0.21386641
-4.0182853	ofWindow	-0.16806789
-4.242692	ofTriangle2d	-0.16806784
-4.242692	ofArc	-0.16806784
-3.8510334	ofSetColor	-0.37256932
-4.0182853	fx_gain_24~	-1.5264223
-2.813273	mod	-0.8354177
-4.242692	zirkhoa	-0.6143774
-3.2281716	zl	-0.47059625
-4.242692	ctxfiles/bp	-1.2164373
-4.0182853	fxlist	-0.5974582
-3.5590265	<<	-0.4024235
-3.7305827	e_platereverb	-0.4483158
-4.242692	dvr	-0.21386641
-4.242692	tt	-0.3133474
-4.242692	jit/fexpr~	-0.23027262
-3.5590265	restore	-1.0653887
-4.242692	rnd_surface	-0.6143774
-3.8510334	jakobsdelay	-0.4483158
-4.112241	ctxfiles/recompile	-0.59172153
-3.8510334	ctxfiles/br	-0.73931617
-4.112241	#color	-0.16806784
-3.5590265	#draw_polygon	-0.35191825
-4.0182853	#clip	-0.24929884
-4.0182853	prob	-0.23027262
-4.242692	disp	-0.6143774
-3.7305827	iemguts/sendcanvas	-1.6557701
-2.7651405	/~	-0.6897063
-3.436373	fexpr~	-0.3409124
-2.464844	tabwrite~	-1.8661978
-3.8510334	key	-0.88131726
-3.385985	frame-finder	-0.83047765
-4.242692	salience	-0.16806789
-4.242692	commonality	-0.16806784
-4.0182853	sssad	-0.21386641
-4.242692	6_delay1p_doppless~	-0.16806784
-3.636388	matrix_diag_mul_line8~	-1.0914986
-3.5590265	matrix_mul_line8~	-0.88591456
-4.242692	default	-0.16806784
-4.242692	OSC,	-0.36913455
-2.574594	moses	-0.84351486
-3.436373	spigot-toggle_vert	-0.7874603
-4.112241	sample_slicer2~	-0.560061
-3.636388	mm_stereoChorus	-0.7453061
-3.5590265	scope	-1.2986242
-4.112241	mrpeach/udpreceive	-0.41815722
-3.8510334	mrpeach/unpackOSC	-0.48783
-3.4933841	mrpeach/routeOSC	-0.32935053
-3.8510334	else/routeall	-0.28249124
-3.8510334	abs~	-0.20431216
-3.385985	rpole~	-0.41062838
-4.112241	plugin~/plugin~	-0.3133474
-4.112241	ml.ann	-0.50872207
-4.242692	.	-0.26507026
-3.8510334	submatrix3~	-1.5732546
-4.242692	windowvec~	-0.16806784
-4.112241	pmosc~	-0.23027262
-3.8510334	iemguts/oreceive	-0.42266163
-3.5590265	pofimage	-1.0416362
-3.636388	poftouch	-0.8437266
-4.242692	hist	-0.16806784
-4.242692	grids,	-0.16806784
-4.242692	cell	-0.3133474
-4.242692	spat_\$3_24~	-0.16806784
-4.112241	tabreceive~	-0.64358115
-4.112241	sndcm~	-0.16806784
-4.242692	recsnd~	-0.16806784
-3.0425773	counter	-0.5850344
-4.112241	sin~	-0.16806784
-3.7305827	birdPan~	-0.67642933
-2.8261883	prepend	-0.60607356
-4.242692	cursor	-0.26507026
-4.242692	ui.bpfunc	-0.16806784
-4.242692	dmux8way	-0.16806784
-4.112241	register	-0.3133474
-4.112241	muxer8way8	-0.57658887
-4.242692	credit	-0.16806784
-3.5590265	kdemux2	-0.22082189
-4.242692	im.input	-0.23027262
-4.0182853	im.player	-0.23027262
-4.112241	im.echo	-0.26507026
-4.0182853	im.output	-0.5351962
-4.112241	cyclone/snapshot~	-0.26507026
-4.112241	oselect	-0.26507026
-4.0182853	omessage	-0.37256932
-3.636388	l	-0.16806784
-4.112241	\$4	-0.16806784
-3.636388	sqrt	-0.19364437
-4.242692	AmbiDecoderQuad~	-0.16806784
-4.112241	monostereo	-0.39542687
-4.242692	ext13/send13~	-0.16806784
-4.0182853	receive~	-0.41746292
-4.242692	sine~	-0.16806784
-4.112241	arrast_param	-0.4483158
-4.242692	pitchshifter_	-0.16806784
-4.112241	vfreeverb~	-0.26507026
-4.0182853	mtx_eye	-0.23466094
-4.242692	mtx_bitright	-0.16806784
-4.0182853	3dp_view	-0.16806789
-3.5590265	s2l	-0.37566143
-4.242692	delay_onesec	-0.16806784
-3.636388	relay	-0.6334892
-4.242692	ofReplaceList	-0.16806784
-4.0182853	disk	-0.3133474
-4.112241	hsv2rgb	-0.24385892
-3.196291	color	-0.4143749
-3.1387937	dbtorms	-0.5924758
-4.0182853	motex/pan~	-0.27222455
-3.636388	glsl_vertex	-0.4534188
-4.0182853	glsl_fragment	-0.55032885
-3.7305827	glsl_program	-0.42797923
-4.0182853	cos	-0.30160773
-4.0182853	abs/master-bpm	-0.6491395
-3.8510334	mass2D	-0.23027262
-3.4933841	append	-0.7041856
-3.0880263	pow	-0.45991528
-3.385985	savepanel	-0.5642394
-4.242692	sp-ghub8~	-0.3133474
-4.242692	zexy/tabset	-0.43828616
-4.112241	slicerec~	-0.16806784
-4.242692	pddom.r~	-0.16806784
-4.242692	pddom.s~	-0.16806784
-4.242692	gf/canvas_filename	-0.16806784
-4.242692	list.route	-0.27222455
-3.7305827	ui.dt	-0.5351962
-2.8394995	clip~	-0.6433293
-4.0182853	struct	-0.5664319
-3.5590265	get	-0.54784566
-2.9822416	set	-1.2771355
-4.242692	earlyref~	-0.26507026
-4.242692	blowup_preset_sfgem,	-0.16806784
-3.7305827	jacktrip	-0.28385454
-4.242692	listdir	-0.16806784
-4.0182853	hidio	-0.85741544
-4.0182853	sp01	-0.20431216
-3.8510334	delayfbck~	-0.7015276
-4.0182853	voice~	-0.31173876
-4.242692	ml	-0.16806784
-4.242692	list.remove	-0.16806784
-4.0182853	ui.display	-0.3133474
-3.2999492	udpsend	-0.6741177
-3.385985	samphold~	-0.3315171
-4.112241	tbc-utils/step-seq	-0.73931617
-3.8510334	qlist	-0.64982796
-4.242692	musical.note.index	-0.16806784
-3.8510334	mix.out_~	-0.5351962
-4.242692	uDMX	-0.16806784
-3.8510334	iemmatrix/mtx_mul~	-0.80560136
-4.0182853	d-modes	-0.33677343
-3.196291	pp	-0.5935799
-4.242692	rh_wavedisplay	-0.26507026
-4.242692	seeder	-0.3133474
-4.242692	m_ctlin	-0.16806784
-4.112241	rc-midimetro	-0.23027262
-4.242692	rc-notein	-0.26507026
-4.242692	keybd	-0.16806784
-3.2999492	pointer	-0.52410126
-4.112241	cyclone/funnel	-1.0218627
-3.636388	json-decode	-0.25706762
-3.2625792	l2s	-0.7559314
-4.0182853	fx_\$4_48~	-1.1033978
-4.112241	sub.bop.util.scale	-0.16806789
-4.242692	gameToneSynth~,	-0.26507026
-4.0182853	gameMixer~	-0.6143774
-4.242692	kria	-0.16806784
-4.0182853	LFO~	-0.16806789
-4.242692	wsprobe~	-0.26507026
-3.7305827	pix_video	-0.38697523
-4.242692	cyclone/peakamp~	-0.16806784
-3.7305827	tedium_output	-0.6813242
-3.2281716	switch	-0.43599996
-3.8510334	savestate	-0.47574005
-4.242692	gl/ext/zexy/list2symbol	-0.3133474
-3.436373	czero~	-0.6888246
-4.112241	lfo~	-0.16806784
-3.1387937	clone	-0.5787741
-3.5590265	pow~	-0.42539006
-4.242692	asciiToPd	-0.16806784
-4.112241	mapping/resample	-1.1372561
-4.242692	scale~	-0.16806784
-3.636388	tof/param	-0.52589715
-4.242692	sigpack/harmgen~	-0.16806784
-4.112241	7-sec-delay~	-0.43828616
-3.7305827	reverb~	-0.5116191
-4.0182853	cosine-pan~	-0.81394976
-2.9129636	vcf~	-0.65508306
-3.196291	extra/sv	-0.637287
-3.7305827	arduino/arduino_out	-0.98235416
-4.242692	make_ilda_frame	-0.16806784
-4.112241	pofxml	-0.4425562
-4.112241	ii	-0.351271
-4.242692	harm	-0.26507026
-4.112241	inst	-0.43828616
-4.242692	rev2~,	-0.16806784
-4.112241	channelAnalyser	-0.16806789
-4.112241	state_store	-1.1979539
-3.1665916	square	-0.97046584
-4.242692	env_inout0Z	-0.16806784
-4.242692	polymap	-0.26507026
-4.242692	ofClear	-0.16806784
-3.5590265	curve	-1.2986242
-4.242692	metaseq-ireceive	-0.16806784
-4.0182853	hid	-0.9093956
-4.242692	cyclone/seq	-0.28249124
-4.0182853	cyclone/midiparse	-0.23027262
-3.7305827	mp3cast~	-0.6735993
-4.112241	file	-0.36913452
-4.112241	counternode-bin~	-0.3133474
-3.636388	+~,	-0.26982665
-4.242692	netpd-find-peers	-0.16806784
-3.2281716	tabplay~	-0.48238724
-3.385985	1	-0.3206512
-4.112241	gwbin/map,	-0.26507026
-4.242692	dead_alive	-0.6143774
-4.242692	osc-voice	-0.43828616
-4.242692	effectreverb	-0.16806784
-4.112241	pix_rgba	-0.21386641
-4.112241	pix_movement	-0.16806784
-4.0182853	pix_motionblur	-0.16806789
-4.112241	pix_blob	-0.16806784
-3.636388	c.number~	-0.39542687
-3.636388	ddemux	-0.49525547
-3.8510334	mode/say	-0.7904687
-4.0182853	init	-0.2505037
-4.0182853	ambi_rot	-0.5152626
-4.112241	control_numbers_window	-1.129957
-4.112241	liner_sfgem	-0.90001047
-4.112241	Tarer	-0.8604963
-4.242692	gui_audios	-0.16806784
-4.242692	gui_waveforms	-0.16806784
-4.112241	netpd-status-get	-0.16806789
-4.242692	monitor	-0.16806784
-3.4933841	poftranslate,	-0.63181216
-4.242692	particle-wet	-0.5351962
-4.242692	receive_setting	-0.26507026
-4.242692	LaserComputeAngles	-0.16806784
-4.242692	pgmin	-0.26818368
-4.0182853	bendout	-0.3133474
-3.7305827	synth~	-0.28937414
-4.112241	loca.circle	-0.26507026
-4.242692	<='	-0.16806784
-4.242692	oktaDispatch	-0.16806784
-4.112241	mm_edge2~	-0.16806784
-4.242692	keyname	-0.31448197
-4.112241	chair.rotary-limit-range	-0.98235416
-4.0182853	mm_xfade	-0.9975942
-4.112241	mm_env~	-0.23027262
-4.242692	pysend	-0.16806784
-4.242692	switch14	-0.16806784
-3.8510334	list-abs/list-wrandom	-0.36913455
-4.0182853	unpunch	-0.20431216
-4.112241	param.get	-0.55032885
-3.5590265	pofvisible	-0.64513814
-3.436373	pofscale	-0.27895072
-4.242692	c.slider	-0.16806784
-4.242692	stereochorus~	-0.16806784
-3.2281716	midiout	-1.085138
-4.112241	ctxfiles/dvs	-0.26507026
-4.242692	pitchdetect	-0.26507026
-3.7305827	grid	-0.33292603
-4.112241	thre	-0.43828616
-3.4933841	pvu~	-0.66013485
-3.1387937	vu	-1.2189827
-4.0182853	fmramp~	-0.23027262
-4.242692	SEQ-wavSequence	-0.16806784
-4.242692	FX-reverb	-0.16806784
-4.112241	fx_gain_6~	-0.6143774
-4.112241	plts~,	-0.23027262
-3.7305827	#in	-0.2621697
-4.112241	lti.MeanShiftSegmentation	-0.23027262
-4.0182853	eloopxf~	-0.93313617
-3.4933841	rfft~	-0.5383761
-4.242692	touchin	-0.16806784
-4.112241	wind_whistle	-0.26507026
-4.242692	asdf~	-0.26507026
-4.112241	mtl/clkSlave	-0.16806784
-4.242692	vbap~	-0.16806784
-4.112241	mtxgui	-0.49321735
-2.9462228	*~,	-0.5837526
-4.0182853	jwy-sync-s	-0.77407825
-3.4933841	Scope~	-0.53306806
-3.8510334	cycle~	-0.36913455
-4.0182853	vvvvvvvvvvvvvvvvvvvvvvvvvvvvvvvvv	-0.7904687
-4.242692	\$1fdbk_matrix20~	-0.7904687
-4.112241	process	-0.21386641
-3.5590265	sampler	-0.28385454
-3.8510334	pix_multiblob	-0.24929884
-4.0182853	earplug~	-0.24385892
-3.1665916	swap	-0.5586574
-4.242692	Rhodey~	-0.16806784
-3.636388	block~	-0.92543703
-4.112241	curve3d	-0.29338807
-3.7305827	matrix~	-0.6937284
-4.242692	paramwriter	-1.0123174
-4.0182853	handlers/mono_pre_processor	-0.24206598
-4.112241	handlers/quad_post_processor	-0.3133474
-4.242692	handlers/quad_module	-0.23027262
-4.242692	snapStripRpi	-1.0666751
-4.242692	ctxfiles/canvasmove	-0.87761885
-4.242692	fx_\$3_48~	-0.9368408
-4.242692	baseline_computation	-0.43828616
-3.5590265	m_scale	-0.21386641
-4.242692	partgrupo1-toca~	-0.16806784
-4.242692	mix_\$5_24~	-0.6143774
-3.8510334	c_stchannel	-0.4529193
-4.0182853	c_tobus	-0.83622617
-3.196291	timer	-0.40860313
-4.242692	cyclone/funbuff	-0.3133474
-4.242692	data.param.dump	-0.16806784
-4.0182853	drunk	-0.33677343
-4.0182853	calcVolPan	-0.48566875
-3.5590265	pan	-0.40315562
-4.242692	play-samp~	-0.16806784
-3.8510334	ezdac~	-0.36913455
-4.242692	else/function~	-0.16806784
-4.112241	else/graph~	-0.26507026
-4.112241	accumrotate	-0.16806784
-4.112241	colorSquare	-0.26507026
-4.112241	calcFreq	-1.0403461
-3.436373	pad~	-0.57325447
-4.112241	mix~	-0.16806784
-3.7305827	pix_crop	-0.32848006
-3.8510334	z~	-0.38117647
-4.0182853	rifft~	-0.20431216
-4.0182853	line3	-0.16806789
-3.4933841	scaleXYZ	-0.21386641
-4.112241	dropdown	-0.33677343
-4.0182853	abs/mscale	-0.26982665
-4.112241	life2x	-0.6143774
-4.242692	three_d	-0.16806784
-3.7305827	looper~	-0.19364437
-4.242692	2mixerhorz~	-0.26507026
-4.242692	arrast_vjmotor	-0.16806784
-4.112241	arrast_mapmotor	-0.16806784
-4.242692	arrast_imotor	-0.16806784
-4.242692	lbang	-0.27222455
-4.112241	sp-pass~	-0.36913455
-4.112241	mm_compressor	-0.3133474
-4.242692	timestretch-reader-abs	-0.43828616
-4.242692	ch_grp	-0.73931617
-4.112241	bytes2any	-0.16806784
-4.242692	pdp_zoom	-0.16806784
-4.242692	e_freqshift	-0.26507026
-4.242692	phrases-make3colors	-0.26507026
-3.5590265	zexy/pack	-1.020704
-4.0182853	list_store,	-0.43951613
-4.242692	vas_binauralspace~	-0.16806784
-4.112241	jwy-sync-r	-0.8162926
-4.112241	pix_chroma_key	-0.26507026
-4.112241	time_signature	-0.23027262
-4.242692	wrapper	-0.16806784
-4.242692	bang~	-0.30345923
-2.8820715	bp~	-0.72525674
-4.242692	atan~	-0.16806784
-3.1665916	<	-0.28704
-4.242692	u_channelstrip_st_tm	-0.16806784
-4.112241	player_square	-0.5351962
-4.242692	pdp_plasma	-0.16806784
-4.242692	pdp_reg	-0.16806784
-4.242692	chair.vfreeverb~	-0.16806784
-4.242692	myrange	-0.16806784
-4.242692	2in2out	-0.16806784
-4.242692	pix_opencv_camshift	-0.26507026
-4.112241	gemkeyboard	-0.58474004
-3.4933841	tabosc4~	-0.21703117
-3.7305827	else/numbox~	-0.6143774
-4.112241	else/pvoc.player~	-0.23027262
-3.1126688	else/out~	-1.0318924
-3.5590265	monovol	-0.19036373
-4.112241	fader-ui	-0.16806784
-4.242692	stepsek+A	-0.7904687
-4.112241	sp-ghub4~	-0.26507026
-4.112241	zexy/z~	-0.16806784
-4.242692	effectsender	-0.87761885
-4.242692	specmash	-0.16806784
-4.242692	loopstat	-0.16806784
-4.242692	gl.text	-0.16806784
-4.0182853	gl.plane	-0.4483158
-3.5590265	cpole~	-0.82104266
-4.242692	ev_grid	-0.16806784
-4.112241	ev_pano_stitch	-0.26507026
-4.242692	else/bicoeff2	-0.16806784
-4.242692	fx.delaydub~	-0.16806784
-4.0182853	ITERATION	-1.3547401
-4.0182853	decay2~	-0.16806784
-4.242692	sig2float~	-0.16806784
-4.0182853	unnamed_object	-0.2331932
-4.242692	birdClock	-0.47685698
-4.242692	fd_dory	-0.16806784
-4.242692	cartopol~	-0.16806784
-3.2281716	multiplex~	-0.4959468
-4.112241	midi_voice	-0.5351962
-4.112241	listenabler	-0.26507026
-3.8510334	plugin~	-0.30160773
-3.636388	ggate	-0.24206598
-4.112241	wiringPi	-0.43828616
-2.9638588	coords	-0.7392339
-4.242692	receive_prepend	-0.3133474
-4.242692	doc_m	-1.0403461
-4.112241	panner2~	-0.16806784
-3.2999492	cyclone/tosymbol	-0.5523959
-4.242692	irmeasure~	-0.16806784
-4.242692	read_1-16_3	-1.2341661
-4.112241	SynthEngine	-0.26507026
-4.242692	vfreeverb	-0.16806784
-3.1387937	!=	-0.40644678
-4.242692	midinote	-0.3133474
-4.242692	rc-sample~_	-0.26507026
-4.112241	chorus~,	-0.26507026
-4.242692	chooser	-0.16806784
-4.0182853	signal_router_sixteen_bit	-0.34736606
-4.242692	netpd-dsp-off	-0.16806784
-4.242692	adc_smooth	-0.16806784
-4.242692	adc_not	-0.16806784
-3.1387937	scale	-0.46286345
-4.0182853	e_phaser	-0.57658887
-4.112241	filtercoeff.mmb	-0.52345735
-4.242692	filterplot.mmb	-0.6813242
-4.242692	./pd-dependencies/unpack-seqinst	-0.9154074
-3.7305827	ø.remote	-0.5400406
-4.242692	rnd-stat	-0.16806784
-3.2999492	rev2~	-0.68440497
-3.0425773	delread~	-0.80521435
-4.242692	ambidecoder_control	-0.23027262
-4.112241	netpd_f	-0.43062806
-4.242692	zirk_hrtf	-0.16806784
-4.242692	#to_pix	-0.16806784
-3.636388	pix_info	-0.4534188
-4.242692	lin->lin	-0.16806784
-4.112241	env.adsr~	-0.16806784
-4.112241	#expr	-0.23027262
-4.242692	peakamp~	-0.16806784
-4.112241	TuioLooper~	-0.5351962
-3.8510334	sp-hub12~	-0.4483158
-4.242692	waveform	-0.16806784
-4.0182853	mrpeach/packOSC	-0.7904687
-4.112241	mrpeach/udpsend	-0.7115572
-4.242692	modules/utility/empty/module	-0.7904687
-4.242692	mono-EQ3.meh	-0.16806784
-4.0182853	rt	-0.3802942
-4.242692	meh_bank	-0.3133474
-4.242692	osci/map~	-0.16806784
-3.7305827	cos~	-0.59780073
-4.112241	disis_munger~	-0.26507026
-4.242692	ambiToBinaural~	-0.16806784
-3.2625792	div	-0.39019066
-4.112241	perk-cowbell	-0.16806784
-4.0182853	fd_iterate	-0.23027262
-4.0182853	crand	-0.21386641
-4.112241	fd_gauss	-0.16806789
-4.0182853	viz_EEG	-0.3133474
-4.242692	manta.maximum	-0.16806784
-4.242692	sub.touch-scale	-0.16806784
-4.242692	doc_also	-0.18581204
-4.242692	#lop_space	-0.16806784
-4.112241	fecho	-0.5517007
-4.0182853	dline~	-0.16806789
-3.8510334	oscparse	-0.44583386
-4.242692	bendin	-0.26818368
-4.242692	../effects/envelope	-0.16806784
-4.0182853	abs_granularsample_particles20	-0.24385892
-4.112241	midi-encoder	-0.28665006
-4.242692	lmt	-0.3133474
-4.242692	bin/delay-module~	-0.16806784
-4.242692	seq.min	-0.16806784
-4.242692	syn.snare.min~	-0.16806784
-4.242692	flow.demultiplex~	-0.16806784
-3.436373	ftom	-0.39615107
-3.8510334	model	-0.5351962
-4.242692	hoa.pi~	-0.16806784
-3.7305827	hoa.3d.encoder~	-0.2537468
-3.636388	for++	-0.25623775
-3.385985	pofrect	-1.1544644
-4.242692	ofSquare	-0.16806784
-4.112241	ofSetRectMode	-0.16806784
-4.112241	ofRotate	-0.16806784
-4.242692	ofGetRotate	-0.16806784
-3.7305827	grand	-0.31173876
-4.242692	r_float	-0.16806784
-4.112241	gate20	-0.36913455
-4.242692	fgrain	-0.3133474
-4.112241	submatrix8~	-1.2675899
-3.0647075	mull~	-0.47586387
-4.112241	waveformselector	-0.16806784
-4.242692	tremolo	-0.26507026
-4.0182853	ctxfiles/myinit	-0.93313617
-4.112241	line,	-0.16806789
-4.112241	imageKnob	-0.5351962
-4.242692	mm_pattern	-0.16806784
-4.242692	usss.monometer	-0.26507026
-3.4933841	||	-0.30144835
-4.0182853	drip	-0.5732546
-4.112241	pf_finger	-0.27222455
-3.636388	tabread~	-0.2913077
-4.242692	bin2dec	-0.16806784
-4.242692	featureAccum	-0.16806784
-3.8510334	context	-0.19805747
-3.636388	spigot-toggle_jaunenoir	-0.26863268
-3.8510334	coll	-0.31173876
-3.4933841	prepent	-0.23027262
-3.436373	ofelia	-0.4693703
-3.436373	samplerate~	-0.4351222
-3.5590265	mux~	-0.3985186
-4.0182853	abs_multixyfx2	-0.20431216
-4.242692	chorder1	-0.16806784
-3.636388	ead~	-0.36324218
-4.112241	granular	-0.3133474
-4.242692	sampmsg_view	-0.16806784
-4.112241	hercmap_left_timejog	-0.16806784
-4.112241	sampiface_msg_out	-0.26507026
-4.242692	e_apdist	-0.16806784
-3.2999492	soundoutput	-0.84625584
-4.242692	cosine-pan-control	-0.83622617
-4.112241	terminal_tedium_adc	-1.0914986
-3.7305827	bp~,	-0.20431216
-4.242692	specIrregularity	-0.16806784
-4.242692	clr.conv	-0.3133474
-4.242692	substr	-0.16806784
-4.0182853	midi-toggle	-0.4452352
-4.242692	osci/ellipse~	-0.16806784
-3.7305827	osci/out~	-0.6143774
-4.242692	pdkl-drip	-0.16806784
-4.112241	pdkl-fill	-0.26507026
-4.0182853	playlist	-0.31199235
-4.242692	fd_markov5	-0.16806784
-4.242692	t2l	-0.16806784
-3.4933841	bondo	-0.5273622
-4.0182853	valueChanged	-0.16806784
-3.4933841	element	-0.5664319
-4.242692	random_walker_phase_helper	-0.16806784
-4.242692	gfx_rec	-0.3133474
-3.7305827	ctxfiles/br2	-1.2833842
-4.242692	store	-0.26507026
-4.242692	list_bilin	-0.3133474
-4.242692	zirk_hoa	-0.16806784
-4.242692	vs-masterclock	-0.16806784
-4.112241	multitimbral	-0.5732546
-4.0182853	playit	-0.5732546
-4.242692	eeb_obj_get_set	-0.16806784
-4.242692	fx_\$4_5~	-0.26507026
-4.112241	else/metronome	-0.23027262
-3.385985	listbox	-0.5092164
-4.112241	else/metronome~	-0.16806784
-4.242692	o.pack	-0.16806784
-4.242692	o.select	-0.16806784
-4.242692	o.message	-0.16806784
-4.242692	ossia.client	-0.24929884
-3.5590265	c.number	-0.2621697
-4.0182853	c.blackboard	-0.4483158
-4.112241	pix_snap2tex	-0.16806789
-3.0880263	rotateXYZ	-0.2745039
-3.2625792	sphere	-0.7030364
-4.242692	ps.adsr~	-0.16806784
-4.242692	ps.echo~	-0.16806784
-4.242692	ps.dac-out~	-0.16806784
-3.4933841	pix_image	-0.28906068
-4.112241	chair.transpose-oct	-0.27222455
-3.2281716	oscformat	-0.84441495
-3.636388	makesymbol	-0.31173876
-3.7305827	pulse~	-0.19805747
-4.242692	del~	-0.16806784
-4.242692	route3	-0.16806784
-3.0425773	display	-0.8878734
-4.242692	modulo_counter	-0.16806784
-3.1126688	alpha	-0.24686858
-4.242692	aux_send_post~	-0.16806784
-4.242692	listprepend	-0.16806784
-4.112241	e_del	-0.16806784
-4.242692	c.colorpanel	-0.16806784
-4.0182853	c.toggle	-0.16806789
-3.8510334	view~	-0.27222455
-4.242692	if	-0.16806784
-4.242692	BEES_Y4,	-0.29338807
-4.112241	BEES_ITER	-0.4483158
-4.242692	BEES_Y	-0.16806784
-4.112241	BEES_GRIDRAW	-0.4483158
-4.242692	synth-subtractive	-0.16806784
-4.112241	slOSCsender2	-0.6813242
-3.636388	mtcf-polygon	-0.77050936
-4.0182853	mtcf-finger	-0.5116191
-4.112241	else/initmess	-0.19805747
-4.242692	else/function	-0.26507026
-4.112241	else/insert	-0.26507026
-4.242692	ltextfile-drip	-0.16806784
-4.0182853	ambi_encode	-0.6432246
-3.8510334	ossia.param	-0.28385454
-4.112241	fx_\$4_24~	-0.5225921
-4.242692	bass_drum	-0.26507026
-4.242692	sorteia_n_vezes	-0.26507026
-4.242692	atualiza_vetor	-0.26507026
-4.0182853	ndmetro	-0.4979024
-4.112241	sdData	-0.43951613
-4.242692	pdp_opencv_floodfill	-0.16806784
-4.112241	si	-0.77050936
-4.242692	pix_2grey	-0.16806784
-3.5590265	dac~,	-1.0914986
-4.242692	d-biquadcalc-lowpass	-0.16806784
-4.112241	d-reverb2-light~	-0.23027262
-4.112241	mix.ch.stereo~	-0.4483158
-4.242692	mix.throw.stereo~	-0.5351962
-4.242692	midi-encoder-state-settings	-0.16806784
-4.112241	bth	-0.3133474
-4.112241	top	-0.43828616
-4.112241	eq~	-0.43828616
-4.112241	midi_scale	-0.26982665
-3.7305827	looper-new~	-0.70982325
-3.8510334	freeze~	-0.4483158
-3.8510334	eq3~	-0.6813242
-3.8510334	audio-delay~	-0.5351962
-3.7305827	mknob	-0.25623775
-3.436373	zexy/list2symbol	-0.31669956
-4.242692	sonogram~	-0.16806784
-4.112241	mrpeach/binfile	-0.16806784
-4.242692	sub.lvn.rainbowmaker	-0.16806784
-4.242692	pofshader	-0.16806784
-4.112241	pofplane	-0.3133474
-3.196291	abs	-0.27969366
-4.242692	tcpreceive	-0.16806784
-3.7305827	translate	-0.39542687
-4.0182853	rotate	-0.16806789
-4.242692	ggee/shell	-0.23027262
-4.242692	fm-osc~	-0.16806784
-4.242692	EEG_peak2ms	-0.5152626
-4.112241	formant_reader	-0.16806784
-4.242692	10secStats	-0.16806784
-4.112241	bit_param2	-0.26507026
-3.2625792	cyclone/sprintf	-0.64701873
-4.242692	hh_donger	-0.16806784
-4.112241	pix_grey	-0.16806789
-3.5590265	wrap~	-0.20088936
-3.7305827	graph~	-0.24929884
-4.242692	fx/data-op-fx-9	-0.16806784
-4.242692	tedium_input	-0.44687548
-4.242692	boids3d	-0.16806784
-4.112241	cyclone/comb~	-0.5152626
-4.242692	pdp_ieee1394	-0.16806784
-4.242692	SequencerChannel	-0.36913455
-3.636388	adsr~	-0.48510402
-3.7305827	demultiplex	-0.21386641
-4.112241	gate3~	-0.23027262
-4.242692	ofRcv	-0.19805747
-3.636388	++	-0.16806789
-3.8510334	s,	-0.6143774
-4.242692	depot	-0.16806784
-4.242692	u_mux2	-0.16806784
-4.0182853	u_show	-0.3133474
-4.112241	abs.creator	-0.29338807
-4.242692	rj/s_osc	-0.16806784
-4.242692	gl/ext/zexy/symbol2list	-0.16806784
-4.0182853	ITERATION1,	-1.3133475
-4.242692	fd_spigot	-0.26507026
-4.112241	abs_delayline1	-0.16806784
-3.7305827	../generics/line_mul~	-0.39542687
-4.242692	choose-note	-0.16806784
-4.242692	play-short	-0.16806784
-4.242692	hoa.3d.wider~	-0.16806784
-3.5590265	unsig~	-0.30509642
-4.242692	Patches/juriRoute	-0.6143774
-4.112241	link3D	-0.16806784
-4.242692	pdp_opencv_threshold	-0.16806784
-4.242692	ram8	-0.6143774
-3.385985	delread4~	-0.40315562
-4.242692	SequencerStep	-0.16806784
-4.242692	switch_1.0	-0.16806784
-3.0215201	import	-0.38957357
-4.112241	ctxfiles/idcontrol	-0.71128744
-4.242692	o.io.slipserial	-0.3133474
-3.196291	cyclone/prepend	-0.51907766
-4.112241	ctxfiles/dvr	-0.16806784
-4.242692	to_freq	-0.16806784
-4.242692	gemmouse	-0.29315332
-4.242692	multiplus	-0.16806784
-4.242692	list-centroid	-0.26507026
-4.112241	h_multimap	-0.2851071
-4.242692	s_hstr	-0.16806784
-3.8510334	shadylib/outputc~	-0.27222455
-4.242692	iemlib/gainvu~	-0.16806784
-4.242692	square_pattern_set	-0.16806784
-4.242692	liner~	-0.16806784
-4.112241	snaps~	-0.26507026
-4.242692	utils/detune_knob	-0.26507026
-4.112241	channels~	-0.16806784
-4.242692	tabdump2	-0.16806784
-4.112241	shell	-0.30160773
-4.242692	ui_4	-0.16806784
-3.636388	ofExpr	-0.24206598
-4.112241	ofDrawImage	-0.36913455
-4.112241	AbstractionGrain	-1.1584455
-4.0182853	c_markov	-0.23027262
-4.242692	set/instrBar	-0.16806784
-3.7305827	ctxfiles/sp01	-0.548059
-4.242692	reverb-component	-0.16806784
-4.112241	1grain~	-0.3133474
-4.242692	accDades2	-0.16806784
-4.112241	ml.mlp	-0.98235416
-4.0182853	e_reslop	-0.6143774
-4.0182853	nop	-0.5563855
-3.7305827	#pack	-0.23027262
-4.242692	snd.player~	-0.16806784
-4.0182853	vbap	-0.43951613
-4.112241	@	-0.21386641
-3.8510334	@out	-0.27222455
-4.242692	abs_triopsfmosc1	-0.16806784
-4.242692	./pd-dependencies/wavetablesynth	-0.26507026
-4.242692	dvs	-0.16806784
-4.242692	dkvancomp~	-0.29338807
-4.0182853	dkezvolS~	-0.36913455
-4.242692	gemkeyname	-0.5438038
-3.7305827	sqrt~	-0.25623775
-4.242692	gate32	-0.16806784
-4.0182853	c_xfade,	-0.3133474
-4.242692	vs-pyramid	-0.16806784
-4.242692	urne	-0.16806784
-4.242692	else/chance,	-0.16806784
-4.242692	sub/clipscale	-0.16806784
-4.242692	else/schmitt	-0.16806784
-4.242692	pitchbendwheel	-0.16806784
-4.242692	gameAccordMIDI~,	-0.16806784
-4.0182853	iem_image	-0.23027262
-4.112241	sf-startmsg	-0.16806789
-3.1665916	colorRGB	-0.33368388
-4.112241	vsaw~	-0.3133474
-4.112241	#mouse	-0.23027262
-4.112241	sfplayer_control	-0.73931617
-4.242692	d-mlvl~	-0.16806784
-4.242692	netpd_r	-0.2337797
-4.242692	pianoroll	-0.3133474
-4.242692	savestate_selector_B	-0.22082189
-4.112241	unison4	-0.26507026
-3.8510334	oggwrite~	-0.36913455
-4.242692	scale127	-0.16806784
-4.242692	_recXY	-0.16806784
-3.7305827	stripnote	-0.2324612
-4.242692	handlers/stereo_pre_processor	-0.16806784
-4.112241	handlers/stereo_post_processor	-0.26507026
-4.242692	handlers/stereo_module	-0.26507026
-4.242692	./limit~	-0.16806784
-4.242692	abs_sampler1	-0.16806784
-4.242692	lb	-0.20853256
-4.242692	dalek	-0.16806784
-4.242692	reset	-0.16806784
-4.242692	VFX-freqshift	-0.16806784
-4.242692	VFX-reverberation	-0.16806784
-4.242692	cantroller~	-0.16806784
-4.242692	metaseq-segmenter-netpd	-0.27222455
-4.242692	cyclone/scale~	-0.16806784
-4.112241	cyclone/delay~	-0.16806784
-3.8510334	./out~	-0.5351962
-4.112241	FM_snare	-0.26507026
-4.0182853	clock	-0.16806784
-4.112241	seq16	-0.26507026
-4.0182853	sample	-0.21386641
-4.242692	mix8	-0.26507026
-4.242692	audiotodac	-0.26507026
-4.242692	ctl-range	-0.43828616
-4.242692	freeverb~/freeverb~	-0.7904687
-4.242692	modules/midi-buttons	-0.16806784
-4.0182853	sdObjState	-0.16806784
-4.242692	fd_wielevy2	-0.3133474
-4.242692	wchars2bytes	-0.16806784
-4.242692	onoff15x	-0.16806784
-4.242692	fd_kinetica	-0.16806784
-4.242692	iemguts/receivecanvas	-0.6491395
-4.112241	tb_compressor~	-0.16806784
-4.112241	GEMglVertex3fv	-0.16806784
-3.8510334	GEMglEnd	-0.36913455
-4.112241	savestate,	-1.0833807
-4.242692	ch_ctrl	-0.6143774
-4.242692	else/note2pitch	-0.16806784
-4.112241	#import	-0.16806789
-4.0182853	#fold	-0.21386641
-4.112241	#export	-0.26507026
-3.5590265	list_tosymbol	-0.31173876
-4.112241	data.matrix	-0.21386641
-4.242692	stepsek	-0.9501695
-3.8510334	sp-hub16~	-0.7841079
-4.0182853	else/loop	-0.16806789
-4.112241	cyclone/selector~	-0.16806784
-4.242692	onoff35	-0.16806784
-4.242692	out35	-0.16806784
-4.242692	else/blocksize~	-0.16806784
-4.242692	readtxt	-0.16806784
-4.112241	multifilter~	-0.26507026
-3.5590265	panner~	-0.25623775
-4.242692	modal_change	-0.26507026
-4.242692	sadsrr~	-0.16806784
-4.242692	envrms~	-0.16806784
-4.242692	BUS-catch~	-1.0093914
-3.7305827	log	-0.36554268
-3.8510334	exp	-0.6026377
-4.242692	controller	-0.16806784
-3.636388	<=	-0.19364437
-4.242692	abs_jxstyle1	-0.16806784
-4.242692	initbang	-0.3208478
-4.242692	kaze	-0.16806784
-4.242692	random_walker_sfgem	-0.16806784
-3.636388	count	-0.30199522
-4.242692	tgoh	-0.43828616
-4.242692	bus_send_post~	-0.26507026
-4.242692	cg-shortcut	-0.16806784
-4.242692	BONKtoBBonktoB	-0.16806784
-4.0182853	spigot-toggle_jaune	-0.9154074
-4.242692	lpf_ramp_lfo2	-0.16806784
-4.112241	hoa.2d.map~	-0.26507026
-4.112241	hoa.2d.optim~	-0.3133474
-3.7305827	hoa.2d.decoder~	-0.3433879
-4.242692	hoa.2d.meter~	-0.26507026
-4.242692	sinc-playmidi	-0.16806784
-4.242692	mic4	-0.16806784
-4.242692	gl/p.scope	-0.16806784
-4.112241	abs/adsr	-0.30076572
-4.112241	bark~	-0.23027262
-4.242692	rslider	-0.16806784
-4.242692	apna_glisson	-0.16806784
-4.242692	pdp_control	-0.16806784
-4.242692	phasewrap~	-0.43828616
-4.112241	samplork	-0.26507026
-4.112241	samplor2~	-0.26507026
-4.0182853	mi_joy	-0.16806789
-4.0182853	mi_tgl	-0.3133474
-3.7305827	mi_pot	-0.2244993
-4.112241	midi-button	-0.48783
-4.242692	vj_touchslider	-0.16806784
-4.112241	rand.f~	-0.16806784
-3.5590265	vca	-0.33292603
-4.112241	Arp,	-0.36913455
-4.112241	netpd-mtx	-0.26507026
-4.242692	artnetin	-0.29338807
-4.242692	get_thre,	-0.5152626
-4.242692	preset_file,	-0.6143774
-4.0182853	damp~	-0.26507026
-4.242692	abs_platereverb1	-0.16806784
-4.112241	comb~	-0.16806789
-4.242692	sp-filtergraph~	-0.16806784
-4.242692	mapper,	-0.73931617
-4.112241	list-lastx	-0.27222455
-4.242692	list-rev	-0.3133474
-4.242692	creb/ead~	-0.16806784
-4.112241	channel5~	-0.16806784
-4.112241	rzero~	-0.20431216
-3.7305827	sample-looper~	-0.48943868
-4.0182853	mrpeach/midifile	-0.20431216
-4.112241	else/randpulse~	-0.16806784
-4.242692	else/decay~	-0.16806784
-3.7305827	map	-0.2244993
-4.0182853	fade	-0.16806789
-3.7305827	audio-out	-0.24929884
-4.0182853	graid	-0.30509642
-4.112241	ml.dtw	-0.7904687
-4.242692	synthLeadVoiceTwo	-0.16806784
-4.242692	paramGui	-0.16806784
-3.7305827	para_bp2~	-0.26863268
-3.5590265	zexy/dirac~	-0.29069152
-4.242692	featureDelta	-0.16806784
-4.242692	ascii2pd	-0.26507026
-4.242692	fx_\$5~	-0.16806784
-4.242692	hidin	-0.55032885
-4.242692	pduino_4pots_3buttons	-0.16806784
-4.112241	DISTORT_pi	-0.16806784
-4.242692	monoLoop	-0.16806784
-3.8510334	path	-0.24929884
-4.0182853	unmap	-0.21386641
-4.242692	kount	-0.26507026
-4.242692	list.build	-0.16806784
-4.242692	mm_pattern_writer	-0.16806784
-4.0182853	mm_asr~	-0.37256932
-4.242692	unpackxbee	-0.27222455
-3.636388	mtof~	-0.26818368
-4.112241	loopsel	-0.9154074
-4.0182853	tof/argument	-0.9501695
-4.242692	fwriteln	-0.26507026
-4.112241	rvbap	-0.27222455
-3.8510334	resample	-0.23466094
-4.242692	correlation	-0.26507026
-4.242692	rc-808bass~	-0.16806784
-4.242692	loop_output	-0.7904687
-4.112241	transpose	-0.36913455
-4.242692	harm_modul_temp	-0.43828616
-3.5590265	list_0	-0.52818435
-4.242692	sp-ghub12~	-0.26507026
-4.242692	tbc-utils/lin-to-log	-0.16806784
-4.0182853	iemguts/canvasobjectposition	-1.2341661
-4.242692	mOrgel_21	-0.16806784
-4.242692	tglclick8	-0.26507026
-3.636388	seq	-0.54120195
-4.242692	mix4~	-0.16806784
-3.8510334	meter2~	-0.24929884
-4.0182853	ml.svm	-0.5092164
-3.8510334	tanh~	-0.33677343
-3.7305827	randomF	-0.2244993
-4.112241	gfx_line	-0.3133474
-4.242692	single-grain_V2,	-0.16806784
-3.8510334	c_adsr	-0.24929884
-3.7305827	c_xfade	-0.4483158
-3.7305827	prvu~	-0.24206598
-4.242692	biquad_lpf~	-0.16806784
-4.112241	dist_pack	-0.3133474
-4.112241	moocow/any2string	-0.7904687
-3.636388	pddp/print	-0.9154074
-4.242692	meh_console	-0.3133474
-4.242692	meh_bank-limit	-0.16806784
-4.242692	iemnet/tcpserver	-0.16806784
-3.7305827	tabdump	-0.16806784
-4.242692	fragseq	-0.16806784
-4.112241	ctxfiles/deb	-0.16806784
-4.242692	sommatore_registri	-0.3133474
-4.112241	led	-0.43828616
-4.112241	iemguts/canvasposition	-0.27222455
-3.4933841	tosymbol	-0.41161367
-4.242692	simple	-0.16806784
-4.0182853	pad	-0.41037154
-4.242692	./lib/streamstretch-reader-abs	-0.3133474
-4.242692	mididev	-0.27222455
-4.242692	cc.waves~/dphasor	-0.16806784
-4.242692	cc.waves~/rTri	-0.16806784
-3.7305827	pdp_scale	-0.45650968
-4.242692	pdp_theonice~	-0.16806784
-4.112241	paso_4_voces	-0.3133474
-4.0182853	o.route	-0.26982665
-4.0182853	pdp_mix	-0.29338807
-4.0182853	netpd-pref-get	-0.45122445
-4.112241	netpd-rgb2iem	-0.16806784
-3.8510334	fxchain~	-0.67642933
-4.242692	space1~	-0.16806784
-3.8510334	poffill	-0.24929884
-4.112241	mdeGranular~	-0.26507026
-4.242692	tapeshift~	-0.16806784
-4.242692	xgate~	-0.16806784
-4.242692	sp-hub2~	-0.26507026
-4.242692	gr.in/read	-0.16806784
-4.242692	onoff21	-0.16806784
-4.242692	out21	-0.16806784
-4.112241	pipelist	-0.26863268
-4.112241	distortion~	-0.23027262
-4.242692	stereo_drift~	-0.16806784
-4.112241	stmix~	-0.26507026
-4.242692	abs_grainstates_2c_tables	-0.29338807
-4.112241	abs_granularsynthesis_particles_20	-0.6813242
-4.0182853	c_taptap_arg	-0.7656451
-4.242692	pp.env-st~	-0.16806784
-4.112241	pp.out~	-0.3133474
-4.242692	polygon_wrapper	-0.16806784
-4.242692	./monoctl	-0.16806784
-4.0182853	fd_switch	-0.43951613
-4.112241	lorenz	-0.5351962
-4.242692	_store	-0.16806784
-4.242692	rain_six_outs	-0.5351962
-4.242692	dewco,	-0.16806784
-4.112241	dewca	-0.26507026
-4.0182853	setdsp~	-0.16806789
-3.7305827	vsnapshot~	-0.24385892
-4.242692	\$3_early1_encode_3o_3d~	-0.26507026
-3.4933841	rind	-0.24206598
-4.112241	add~	-0.26507026
-4.112241	envelope_setter	-0.26507026
-4.242692	note-vel-looper	-0.16806784
-4.242692	iemguts/closebang	-0.24929884
-4.242692	conniption-client	-0.23027262
-4.242692	gdcell2.2	-0.3133474
-4.242692	phaseosc	-0.16806784
-4.112241	output	-0.8742845
-4.242692	compressor2	-0.26507026
-4.242692	hoa.soundrone	-0.16806784
-3.7305827	c.gain~	-0.20431216
-3.8510334	hoa.3d.decoder~	-0.21386641
-3.8510334	hoa.dac~	-0.5351962
-4.242692	pong~	-0.16806784
-4.242692	encoder~	-0.26507026
-4.242692	else/f2s~	-0.16806784
-4.242692	monitor_and_delay	-0.6143774
-4.0182853	midi-looper	-0.43828616
-4.242692	n_array	-0.9213973
-4.112241	osci/ramp~	-0.26507026
-4.242692	ambi2_encode_hemi	-0.16806784
-4.112241	list-map	-0.16806784
-4.0182853	downsample~	-0.16806789
-4.112241	rand.i	-0.23027262
-3.8510334	numbox~	-0.27222455
-4.242692	e_tremolo2	-0.16806784
-4.112241	belowThresh~,	-0.27222455
-4.242692	abs_bigplayer1voice	-0.9154074
-4.0182853	gate8	-0.62440705
-3.385985	rand	-0.40879327
-4.242692	read_1-16_rain	-0.43828616
-4.242692	./pd-dependencies/pack-seqinst	-0.6735993
-4.112241	d-8pvoc~	-0.29338807
-4.242692	duck~	-0.16806784
-4.0182853	sig2num~	-0.16806784
-4.242692	dictionary	-0.16806784
-4.0182853	iem_s	-0.3133474
-4.242692	receive_parameter	-0.21703117
-4.0182853	ramp~	-0.20431216
-3.385985	table	-0.2267371
-3.8510334	midifile	-0.47974777
-3.636388	cup	-0.20312086
-4.242692	bpmtoms	-0.16806784
-4.242692	pdp_bq	-0.16806784
-4.242692	roombackend	-0.67642933
-3.636388	volctl~	-0.5995835
-4.242692	iem_r	-0.16806784
-4.242692	midi-sync	-0.16806784
-4.242692	gem_scope	-0.16806784
-3.7305827	lp4_butt~	-1.0125872
-4.242692	Fingers	-0.3133474
-4.0182853	finger	-0.6143774
-4.112241	gui_separator	-0.43828616
-4.242692	list_\$2	-0.16806784
-3.7305827	pgmout	-0.6813242
-4.112241	abs/MicRec	-0.43951613
-3.8510334	ofSnd	-0.16806784
-4.242692	alterna	-0.16806784
-4.242692	ot_count	-0.16806784
-4.242692	ot_mono	-0.16806784
-4.0182853	bug	-0.37256932
-4.112241	magnetophon.synth.drum.808.clap~	-0.26507026
-4.242692	ofelia_XYpad	-0.16806784
-4.242692	sf	-0.29338807
-4.112241	clearCheck	-0.3133474
-4.112241	partial	-0.23027262
-4.242692	_rnoise	-0.16806784
-4.242692	ctxfiles/cl	-0.3802942
-3.7305827	packel	-0.2244993
-4.242692	hoa.binaural_order3	-0.16806784
-4.242692	else/rescale~	-0.16806784
-4.112241	m_minorscale	-0.27222455
-4.242692	led-showstep,	-0.26507026
-4.242692	hp5_crit~	-0.16806784
-3.2999492	gainvu~	-0.5005481
-4.242692	pdp_warhol	-0.16806784
-4.242692	pdp_glx	-0.16806784
-4.242692	param-changer	-0.6143774
-4.242692	arg	-0.16806784
-3.5590265	bonk~	-0.4449256
-4.112241	o-knob	-0.3133474
-4.0182853	wiimote-guts	-0.43951613
-4.112241	oroute	-0.5152626
-4.242692	extap/harm_voice~	-0.16806784
-4.242692	tecla	-0.16806784
-4.242692	gui_sr_clip	-0.16806784
-4.242692	env.ar~	-0.16806784
-4.0182853	drawpolygon	-0.21386641
-3.7305827	gain~	-0.38427767
-4.242692	spatialization_bus~	-0.16806784
-4.112241	synth	-0.16806784
-4.242692	mindflex,	-0.3133474
-3.8510334	list-idx	-0.20431216
-4.0182853	voice	-0.16806784
-4.242692	eeb.gate	-0.16806784
-4.0182853	jh.leap_loop	-0.16806789
-4.0182853	VocoderFreqs	-1.0666751
-3.8510334	ts	-0.7841079
-4.112241	countund	-0.16806789
-4.242692	hoa.ringmod~	-0.16806784
-3.7305827	hoa.scope~	-0.73931617
-4.242692	slm.bypass	-0.16806784
-4.242692	40	-0.16806784
-4.0182853	fx_\$5_24~	-0.573767
-4.242692	ctxfiles/sz	-0.3133474
-4.242692	adc~,	-0.25623775
-4.242692	adc_mix1~	-0.23027262
-3.8510334	pix_info,	-0.33364373
-4.112241	pan/gpan~	-0.23027262
-3.8510334	sampleplayer	-0.2537468
-4.242692	n_matrix~	-0.26507026
-4.112241	ml-svm	-0.27222455
-4.242692	room_EDIT	-0.16806784
-4.242692	\$1reverb_1_6_6~	-0.16806784
-4.242692	else/float2sig~	-0.16806784
-4.242692	else/wavetable~	-0.16806784
-4.0182853	cyclone/counter	-0.21386641
-4.0182853	drawnumber	-0.6143774
-4.0182853	of.window	-0.20431216
-4.242692	multi-stereo-soundfiler	-0.26507026
-4.242692	randinterval	-0.16806784
-4.0182853	dispatch	-0.16806789
-4.0182853	slipdec	-0.36913455
-4.242692	seeded-random	-0.16806784
-4.242692	STPcolorbar7	-0.16806784
-4.112241	list-find	-0.3802942
-4.112241	mtx_diag	-0.36913455
-4.242692	phrases-editor-and-sequencer	-0.52345735
-4.112241	shadylib/prepender	-0.34194967
-3.8510334	iem_prepend	-0.28937414
-4.0182853	dynlib_4bfs	-0.83622617
-4.112241	dynlib_comp	-0.50523293
-4.0182853	pix_convolve	-0.5152626
-4.112241	cg-horiBar	-0.3133474
-4.112241	di	-0.5351962
-4.242692	objtimer	-0.43828616
-4.112241	rotate~	-0.16806784
-4.242692	seqctrl	-0.3133474
-4.112241	textoutline	-0.26507026
-3.7305827	setsize	-0.7904687
-4.242692	e_bitcrusher	-0.26507026
-4.112241	netserver	-0.23027262
-4.242692	list-onearg	-0.16806784
-4.242692	seq.life	-0.16806784
-4.242692	ui.matrix	-0.16806784
-4.0182853	biquad_coefficients	-0.26507026
-4.242692	in_\$3_ctl	-0.3133474
-4.242692	in_\$3~	-0.3133474
-4.242692	mtl/xor	-0.16806784
-4.242692	bag	-0.26507026
-4.112241	sequencer9	-0.23027262
-4.242692	onoff0x	-0.16806784
-4.242692	datei-o	-0.16806784
-4.242692	md_anlg.in	-0.26507026
-4.242692	scale.gui.curve.circle	-0.16806784
-4.242692	gui.sssad.send	-0.16806784
-4.112241	singleFilm	-0.3133474
-4.242692	vid_pos	-0.23027262
-3.8510334	fdn~	-0.20431216
-4.242692	tglclick12	-0.27222455
-4.242692	doc_exist	-0.16806784
-4.242692	apmasterfile	-0.43828616
-4.242692	sinc-audioanalise	-0.16806784
-4.112241	cycle	-0.4483158
-4.242692	rj/e_dubdel	-0.16806784
-3.636388	list_length	-0.26037535
-4.242692	touch/pof_Instru	-0.23027262
-4.112241	multiOR,	-0.3133474
-3.7305827	equal_power_pan~	-1.1428293
-3.8510334	tof/crossfade~	-1.0403461
-4.242692	cricket	-0.16806784
-3.8510334	dynlib_compressor~	-0.24929884
-4.112241	sun~	-0.6701645
-4.0182853	tcpclient	-0.36324218
-4.242692	nchange	-0.16806784
-4.112241	pix_resize	-0.21386641
-4.0182853	pix_dump	-0.26982665
-4.242692	qseq3-id2path	-0.16806784
-3.4933841	zexy/multiplex~	-0.26761594
-4.112241	clouds~	-0.26507026
-4.0182853	popup	-0.58955383
-4.242692	ardour-interface	-0.16806784
-4.242692	send_nrpn	-0.7904687
-4.242692	IdentifyNote	-0.16806784
-4.112241	gui_sr_offset	-0.83622617
-3.436373	f2s~	-0.18782906
-4.242692	g_channelstrip	-0.16806784
-4.242692	lores~	-0.16806784
-4.112241	anOnlineGrain	-0.9975942
-4.112241	ø.parameter	-0.16806784
-4.242692	s.mess	-0.16806784
-4.112241	byron	-0.26507026
-4.242692	hot	-0.16806784
-4.242692	subtractive_synth	-0.16806784
-4.0182853	autospectrum~	-0.3133474
-4.242692	mind_rec_att	-0.16806784
-3.8510334	d-8loop3~	-0.39425159
-4.242692	PofPartSeqOulipo	-0.3133474
-4.242692	ofLoadPath2d	-0.26507026
-4.0182853	ctxfiles/dvi	-0.34736606
-4.242692	python-interface	-0.16806784
-4.242692	newgranule_v~	-0.16806784
-4.0182853	sout~	-0.43828616
-4.242692	play2	-0.26507026
-3.8510334	image	-0.4483158
-3.636388	bl.saw~	-0.16806784
-3.7305827	rescale~	-0.19364437
-4.242692	swell	-0.16806784
-4.242692	launchpad	-0.16806784
-4.112241	midilooper	-0.27222455
-4.242692	u_symbol2list	-0.16806784
-4.242692	feedbackdelay	-0.16806784
-4.242692	rlop~	-0.16806784
-4.242692	markov3	-0.16806784
-4.0182853	pan.mmb~	-0.21386641
-4.112241	outlet~,	-0.26507026
-4.242692	sgSeqPlayer	-0.16806784
-4.0182853	iem_send	-0.23027262
-4.242692	zexy/multiplex	-0.3133474
-4.242692	randomChange	-0.16806784
-4.242692	tempodelay	-0.16806784
-4.112241	list-moses	-0.23027262
-4.112241	drums	-0.16806784
-4.0182853	stevelooper	-0.36913455
-3.636388	shift_register_sixteen_bit~	-0.31978518
-4.0182853	bitwiser	-0.36913455
-4.242692	s_808bass	-0.16806784
-4.242692	sh~	-0.16806784
-4.242692	cyclone/onebang	-0.6143774
-4.112241	cadsr~	-0.3133474
-4.242692	ctxfiles/db	-0.65294826
-4.242692	reset_preset_sfgem	-0.16806784
-4.112241	sqcol	-0.16806784
-4.242692	synthcell	-0.3133474
-4.242692	tt-btns	-0.16806784
-4.242692	tt-LEDs	-0.16806784
-4.242692	LPVoc	-0.16806784
-3.8510334	pak	-0.23027262
-3.636388	polygon	-0.7493458
-4.112241	flite	-0.16806784
-4.242692	mtxstepseq	-0.73931617
-4.112241	rc-808clap~_	-0.16806784
-4.242692	sp-key	-0.23027262
-3.7305827	scopeXYZ~	-0.7904687
-4.242692	mapping/bytemask	-0.16806784
-4.112241	sequence	-0.84625584
-4.112241	decimate~	-0.16806784
-3.8510334	mu	-0.55032885
-4.242692	direction	-0.16806784
-3.8510334	spigot-toggle_violet	-0.21703117
-4.242692	nK2-unit	-0.16806784
-4.242692	BlinkingColorsParameters	-0.16806784
-4.242692	pdp_diff	-0.16806784
-4.112241	pdp_cog_abs_thresh	-0.16806784
-4.242692	A2-masterclock	-0.16806784
-4.242692	3dp_cal3d	-0.3133474
-4.242692	nxRandom	-0.26507026
-4.242692	ngs~	-0.16806784
-4.242692	wetdry~	-0.16806784
-4.0182853	3dp_draw	-0.3133474
-4.112241	file-recorder~	-0.43828616
-4.242692	instruments/MicroOnde	-0.16806784
-4.0182853	#fade	-0.21386641
-4.242692	loadbang,	-0.27222455
-4.242692	out36	-0.16806784
-4.242692	soundControl	-0.16806784
-4.242692	mx-aux-send	-0.3133474
-4.242692	armoire/vertex	-0.43828616
-4.242692	preset_parameter	-0.26507026
-4.242692	AMBI/throwbus~	-0.43828616
-4.242692	SEQ-midiNotesSequence	-0.16806784
-4.242692	FX-pitch	-0.16806784
-4.112241	u_makepoly	-0.16806784
-4.242692	100	-0.26507026
-4.242692	chair.DC-offset~	-0.16806784
-4.112241	rain_players	-0.27222455
-4.242692	simpleadenv~	-0.16806784
-4.242692	net-dynamic-route	-0.16806784
-4.242692	net-request-compare	-0.16806784
-4.242692	monorhythm	-0.16806784
-4.242692	camera	-0.26507026
-4.242692	muug~	-0.16806784
-4.112241	44100	-0.26507026
-4.242692	\$1fdbk_matrix12~	-0.5351962
-4.242692	ctxfiles/share3	-0.3133474
-4.0182853	ofelia_number	-0.21386641
-4.242692	connections/local_receiver	-0.16806784
-4.242692	connections/prefix_spigot_synth	-0.16806784
-4.112241	rest	-0.69579536
-4.112241	tof/folderpanel	-0.23027262
-4.242692	mb-gBrowser	-0.16806784
-4.242692	abs-bell-partial	-0.16806784
-3.8510334	notes	-0.6720347
-3.5590265	sprintf	-0.26037535
-4.242692	czero_rev~	-0.16806784
-4.242692	parse	-0.26507026
-4.242692	gf/canvas_hohoho	-0.16806784
-4.0182853	pyext	-0.19805747
-4.242692	Array-Setter-Gliss-Presets	-0.16806784
-4.242692	OUT/BUS/helper/matrix_fromgui	-0.6143774
-4.0182853	n_delay1p_line~	-0.27222455
-4.112241	osci/circle~	-0.16806789
-4.242692	osci/thrower~	-0.16806784
-4.112241	limiter	-0.23027262
-4.242692	notehold	-0.26507026
-3.8510334	list-abs/list-pad	-0.9501695
-4.242692	ctxfiles/mx	-0.43828616
-4.0182853	roughness	-0.23027262
-4.0182853	stereoflanger~	-0.29338807
-4.242692	birdOut~	-0.16806784
-4.242692	waveplayer~	-0.26507026
-4.242692	vbap,	-0.16806784
-4.112241	killdc~	-0.16806784
-4.242692	epluribus~	-0.16806784
-4.242692	birds	-0.16806784
-4.0182853	debounce	-0.16806789
-4.242692	fx_\$3_24~	-0.5152626
-4.242692	n_knob	-0.43828616
-4.242692	fadtorms	-0.16806784
-4.0182853	initmess	-0.21386641
-4.242692	pd~_instance_audio_switcher	-0.16806784
-4.242692	i,	-0.16806784
-4.242692	9	-0.16806784
-4.112241	fbdelay~	-0.26507026
-2.9129636	out~	-0.61399096
-4.242692	hurgy_bidirection	-0.16806784
-4.242692	chair.stereogain~	-0.16806784
-4.112241	fx.pitch.shift~	-0.16806784
-4.242692	OSCoverUDP_client	-0.16806784
-4.0182853	multiTable	-0.6143774
-4.112241	BEES_MEM0D	-0.43828616
-4.242692	pix_buffer	-0.26507026
-4.242692	bistable	-0.26507026
-4.0182853	rc-spigot~	-0.23027262
-4.242692	Subtractor-voice	-0.26507026
-4.112241	upp.xc	-0.29338807
-4.242692	signal_router	-0.16806784
-4.112241	hip	-0.23027262
-4.0182853	netclient	-0.6701645
-4.242692	sp-ggate~	-0.16806784
-3.8510334	+dsp	-0.43828616
-4.242692	tabletool	-0.5732546
-4.242692	#from~	-0.16806784
-3.2281716	#	-0.34733346
-4.242692	#to~	-0.16806784
-4.242692	c.loadmess	-0.2672233
-4.242692	sc-module	-0.3133474
-4.242692	234.235	-0.16806784
-4.242692	vslider-seq1x16-midi	-0.16806784
-4.112241	midiin	-0.16806784
-4.242692	dmx_out	-0.26507026
-4.242692	camera_blob	-0.16806784
-4.242692	history-voice	-0.16806784
-4.242692	mikivco,	-0.16806784
-4.0182853	slipenc	-0.16806789
-4.112241	faustdelaylite~	-0.26507026
-4.242692	kin.inv.2d.2dof	-0.16806784
-4.112241	tap_iterator	-0.29338807
-4.242692	tappicker	-0.3133474
-4.242692	filt	-0.16806784
-3.8510334	km_osc_format	-0.5351962
-3.8510334	list-insert	-0.16806784
-4.242692	ma.tanh~	-0.16806784
-4.242692	pix_tIIR	-0.43828616
-4.242692	ofGetScreenDimen	-0.16806784
-3.636388	pix_write	-0.62440705
-4.0182853	m_symbolarray	-0.16806789
-4.242692	dkezvuS~	-0.16806784
-4.0182853	BEES_POLY	-0.3133474
-4.242692	grain	-0.48943868
-3.385985	ofTranslate	-0.2182797
-3.8510334	ofSetFillMode	-0.27222455
-4.242692	spell	-0.16806784
-3.8510334	abs/REV_6_12_6~	-0.6813242
-4.112241	3_ambi_jitter_enc~	-0.26507026
-4.242692	130	-0.16806784
-4.242692	guitar-no-poly	-0.16806784
-4.0182853	e_reverb	-0.48943868
-4.242692	osc_phasor~	-0.16806784
-4.242692	d-sq	-0.16806784
-4.112241	+,	-0.26507026
-4.242692	atan	-0.16806784
-4.242692	jit/expr	-0.3133474
-4.242692	dtmf~	-0.16806784
-4.0182853	bonfire-bin/applyWirelessPreset,	-0.6483961
-3.636388	netpd_s	-0.6143774
-4.242692	vox	-0.5351962
-4.242692	muxer4way8	-0.5351962
-3.8510334	muxer8	-0.49167538
-4.0182853	pd~	-0.43951613
-4.242692	abs/rrr_transf_elv_azm	-0.43828616
-4.112241	matrix_mul_line~	-0.7115572
-4.242692	curve2	-0.16806784
-4.112241	sphere3D4O_ambirotate_z~	-0.6813242
-4.242692	complex-mpy~	-0.16806784
-4.242692	complex-scale~	-0.16806784
-4.242692	complex-norm16~	-0.16806784
-4.242692	video_render	-0.26507026
-4.0182853	pdp_spigot	-0.2388177
-3.7305827	minimax	-0.55032885
-3.7305827	min~	-0.39542687
-4.242692	seqclock	-0.3133474
-4.0182853	seqcount	-0.6813242
-4.242692	midi-learn-map	-0.26507026
-4.242692	unstep	-0.16806784
-4.112241	im.volume	-0.16806789
-4.0182853	pofhead	-0.28665006
-4.112241	pofbang	-0.33677343
-4.242692	a_randgrid	-0.6813242
-4.242692	c_makenote	-0.5351962
-4.242692	l4_gr_w	-0.16806784
-4.242692	mapping/debytemask	-0.83622617
-4.242692	signal2~	-0.16806784
-4.112241	perk-bassdrum	-0.16806789
-4.112241	gendynModif~,	-0.3133474
-4.242692	ao	-0.37256932
-4.112241	send_to_out	-0.73931617
-4.112241	EAVideoPlay	-0.16806784
-4.242692	onoff46	-0.16806784
-4.242692	else/hot	-0.16806784
-4.242692	state_manager	-0.26507026
-3.8510334	sdProperty	-0.44591787
-4.112241	Color	-0.43828616
-4.242692	br_	-0.16806784
-4.242692	myOutput~	-0.16806784
-4.242692	hcs/sys_gui	-0.43828616
-4.112241	p	-0.3133474
-4.0182853	pdp_v4l	-0.16806789
-4.242692	pdp_convert	-0.16806784
-4.242692	pdp_description	-0.16806784
-4.242692	mm_patternPlayer	-0.16806789
-4.112241	ctl_struct_abs	-0.5351962
-4.242692	audio-sampler	-0.16806784
-4.242692	of.mouse	-0.16806784
-3.8510334	aubioquiet~	-0.36913455
-4.112241	TaViPaCoMtO,	-0.87761885
-3.8510334	hoa.pi	-0.24206598
-4.242692	sample_unpack	-0.16806784
-3.196291	&	-0.36643788
-4.242692	Percu	-0.16806784
-4.242692	tof/breakpoints~	-0.16806784
-4.112241	audio/mic	-0.21386641
-4.242692	effect/delay	-0.16806784
-4.242692	list_30	-0.26507026
-4.242692	parent$0	-0.16806784
-4.112241	mm_randFilter~	-0.83622617
-4.112241	../toggle~	-0.16806784
-4.242692	netpd-r	-0.21386641
-4.242692	_autorand,	-0.26507026
-4.242692	ctxfiles/gmp	-0.49750808
-4.242692	bangburst	-0.16806784
-4.242692	mclick	-0.16806784
-4.112241	internals-bypass~	-0.26507026
-4.242692	sysexin	-0.3133474
-4.0182853	AmbiPanner~	-0.23027262
-4.242692	m_scalefilter	-0.26507026
-4.112241	pf_granular	-0.3133474
-4.242692	ofLoadVec3f	-0.16806784
-4.242692	ofGetVec3f	-0.16806784
-4.242692	slicer	-0.16806784
-4.242692	flow.curve~	-0.16806784
-4.242692	anal.scope_~	-0.16806784
-4.0182853	fader	-0.9154074
-4.242692	st-EQ3	-0.43828616
-4.112241	st-compressor	-0.36913455
-4.242692	fd_env	-0.16806784
-3.8510334	scope~	-0.43828616
-4.242692	autoline	-0.16806784
-4.242692	decsample2	-0.16806784
-4.242692	OutDec~	-0.16806784
-4.242692	h_priority_queue	-0.16806784
-4.242692	fd_smooth	-0.16806784
-4.242692	track_toju,	-0.16806784
-4.242692	audioplayer	-0.16806784
-4.112241	udpreceive~	-0.3628913
-4.0182853	looper_slave-0-0-3	-0.3802942
-3.4933841	cube	-0.8742845
-4.112241	markov-voice	-0.6143774
-4.242692	mono-sqrt-power-panning	-0.6143774
-4.242692	sounds_pitch	-0.26507026
-3.636388	pix_mix	-0.43951613
-4.242692	get_maxmin	-0.26507026
-4.0182853	humanizer_slave,	-0.23027262
-4.0182853	noteout,	-0.6143774
-4.112241	seq-format-event	-0.4483158
-4.242692	out19	-0.16806784
-4.112241	u_cocollect	-0.26507026
-4.242692	11	-0.16806784
-4.242692	else/chrono,	-0.16806784
-4.242692	netro	-0.16806784
-4.112241	pdp_xv	-0.26507026
-3.7305827	sdPackMatch	-0.8162926
-4.112241	ps2unitexp	-0.23027262
-4.242692	adamonopan	-0.26507026
-4.242692	mxr/fader/fader~	-0.16806784
-4.112241	of.draw	-0.16806784
-4.242692	automaton	-0.16806784
-4.242692	fd_ma	-0.16806784
-4.112241	thisdir	-0.3133474
-3.636388	tabset	-0.6642722
-4.242692	lmnts~	-0.16806784
-4.0182853	adac~	-0.73931617
-4.112241	pix_opencv_threshold	-0.16806784
-4.112241	ambipan~	-0.16806784
-4.112241	spatosc.vbap.8~	-0.43828616
-3.8510334	aoo_send~	-0.26507026
-4.242692	@pd_extra/K12/fx_phaser	-0.16806784
-4.242692	osc/packOSC	-0.36913455
-4.112241	mrpeach/net/udpsend	-0.49750808
-4.242692	./config	-0.16806784
-4.242692	lprepend	-0.36913455
-4.242692	onestep2	-0.27222455
-4.242692	plot	-0.26507026
-4.112241	four_params	-0.43828616
-4.242692	pd_granular_synth~	-0.16806784
-4.0182853	channel	-0.6143774
-4.242692	env_adj	-0.16806784
-4.112241	stepsek+B	-0.6143774
-4.112241	master-set-param	-0.26507026
-4.0182853	hdl	-0.20431216
-4.112241	blockfilter_overlap_add_fft~	-0.6143774
-4.242692	spec2_matrix_bundle_stat~	-0.6143774
-4.242692	blockfilter_overlap_add_ifft~	-0.6143774
-4.242692	soundtouch~	-0.16806784
-4.242692	textextruded	-0.26507026
-4.242692	snd.sample	-0.16806784
-4.242692	playnote	-0.16806784
-4.242692	abs/LEDslider	-0.6143774
-4.242692	fd_salvo	-0.16806784
-4.242692	verb.oct~	-0.26507026
-4.242692	fx_gain_8~	-0.9154074
-4.242692	extra/compute_selection	-0.26507026
-4.242692	#compress	-0.16806784
-4.242692	TO_LPM_MK3	-0.16806784
-4.242692	generateur.signal	-0.16806784
-4.242692	units/loops	-0.16806784
-4.242692	define_loudspeakers	-0.26507026
-3.636388	hoa.decoder~	-0.62440705
-4.242692	AccoSamplerVoice	-0.5351962
-4.112241	player~	-0.43828616
-4.112241	str_link	-0.23027262
-4.0182853	f,	-0.36554268
-4.242692	trigger_map_scratch	-0.16806784
-4.242692	guidenote	-0.16806784
-4.242692	active-player-abs	-0.6813242
-4.112241	vols~	-0.16806784
-4.242692	colormap	-0.16806784
-4.242692	DIY2/perk-bassdrum	-0.16806784
-4.242692	EATi_dynwrapper~	-0.26507026
-4.242692	the_grainer~	-0.16806784
-4.112241	rotateXYZ,	-0.16806784
-4.0182853	#to_list	-0.27222455
-4.242692	monoctl	-0.16806784
-4.112241	note	-0.16806784
-4.112241	u_samplebank	-0.24929884
-4.112241	aspeedlim	-0.16806784
-4.242692	mathrax_soundout	-0.3133474
-4.242692	sample.adsr	-0.16806784
-4.242692	tchek	-0.16806784
-4.242692	dawnChorus	-0.16806784
-4.242692	master	-0.16806784
-4.242692	hoa.in	-0.16806784
-4.242692	parameternumber	-0.16806784
-4.242692	rpi_gpio_shiftin	-0.26507026
-4.242692	mtx_col	-0.16806784
-4.242692	ctxfiles/m-interface	-0.16806784
-4.242692	ctxfiles/c-move	-0.16806784
-4.112241	dsp	-0.43951613
-4.242692	sound_out	-0.16806784
-4.112241	metaseq-isend	-0.26507026
-4.242692	rsk_mixer	-0.16806784
-4.242692	fm/fm-main	-0.6143774
-4.112241	diy-gabs	-0.26507026
-4.112241	martin	-0.3133474
-4.242692	filterview	-0.3133474
-4.242692	ildareceive	-0.43828616
-4.242692	sampler.sample	-0.16806784
-4.242692	addlist2table	-0.16806784
-4.242692	onoff20	-0.26507026
-4.242692	out20	-0.3133474
-3.7305827	transistor~	-0.5351962
-4.242692	c_armnote	-0.16806784
-3.8510334	pix_movie	-0.2537468
-3.8510334	timeroll	-0.6143774
-4.242692	cyclone/histo	-0.16806784
-4.242692	sp-gmix12~	-0.16806784
-4.242692	abs_granularsample_table3	-0.16806784
-4.242692	abs_rev3rs	-0.26507026
-4.112241	gatt~	-0.23027262
-4.242692	spaceline1~	-0.26507026
-4.242692	weightedsum	-0.26507026
-4.112241	analyzer_nolimit	-0.26507026
-3.636388	separator	-0.23027262
-3.7305827	iemlib/iem_prepend	-0.44427606
-4.242692	sys_gui	-0.16806784
-4.242692	@export_list	-0.16806784
-4.242692	delaynote	-0.16806784
-4.242692	\$3_direct_encode_4o_3d~	-0.26507026
-4.242692	sdGui_num_ui	-0.16806784
-4.112241	sdGui_box_helper	-0.26507026
-4.112241	sdDynPatch	-0.43828616
-4.242692	bsq2~	-0.16806784
-3.5590265	splitfilename	-0.32337704
-4.242692	sub/wav	-0.26507026
-4.112241	sub/delay	-0.26507026
-4.242692	synGranul~	-0.16806784
-4.242692	overdrive~	-0.3133474
-4.242692	libs/abs/myscale	-0.16806784
-4.242692	merge_any	-0.16806784
-4.112241	../../core/s_j-synth-core-001	-0.6813242
-4.242692	clapper	-0.16806784
-4.112241	ppl	-0.16806784
-3.8510334	average	-0.16806784
-4.242692	slop~	-0.26507026
-3.636388	pix_data	-0.32034338
-4.242692	polytouchin	-0.23027262
-4.242692	oscx/dumpOSC	-0.16806784
-4.242692	oscx/OSCroute	-0.16806784
-4.242692	seq_only	-0.16806784
-4.242692	waveform.mmb	-0.16806784
-4.242692	pp.env~	-0.16806784
-4.242692	route,	-0.16806784
-4.0182853	sdList	-0.62036735
-4.242692	&&,	-0.16806784
-4.242692	steps	-0.16806784
-4.242692	data.param	-0.26507026
-4.112241	mix.wet.stereo~	-0.6143774
-4.242692	dsp.conn.distance~	-0.16806784
-4.112241	dsp.conn-vmic~	-0.26507026
-4.242692	nbDenumeratorSelector	-0.16806784
-4.242692	stdw	-0.16806784
-4.242692	pdp_frei0r	-0.16806784
-4.242692	gui_track	-0.16806784
-4.242692	../fadeinout~	-0.26507026
-4.242692	ofRectangle	-0.16806784
-4.242692	line-toggle	-0.26507026
-4.112241	audio/readloop	-0.26507026
-4.242692	score	-0.16806784
-4.242692	send13	-0.16806784
-3.8510334	ossia.parameter	-0.19805747
-4.242692	sp-pan~	-0.16806784
-4.242692	hoa.3d.optim~	-0.3133474
-4.242692	looper_RC-2~	-0.16806784
-4.242692	gl/ext/iemlib/iem_s	-0.16806784
-4.112241	modefilter,	-0.5152626
-4.242692	playarray	-0.16806784
-4.242692	master-param	-0.23027262
-4.0182853	iemguts/canvasdollarzero	-0.5225921
-4.242692	bp	-0.16806784
-4.242692	j-get-local-path	-0.16806784
-4.242692	symbol2intlist	-0.16806784
-4.242692	else/meter2~	-0.16806784
-4.112241	sub/scale	-0.16806784
-4.242692	faustgen~	-0.23027262
-4.242692	k_cpu	-0.26507026
-4.242692	scan	-0.16806784
-4.112241	else/autofade2~	-0.26507026
-4.242692	ambicube~	-0.3133474
-4.242692	PofStep	-0.16806784
-3.8510334	faust~	-0.29338807
-4.242692	#type-gui	-0.26507026
-4.242692	#cast	-0.16806784
-4.242692	#is	-0.16806784
-4.242692	beatsF0Plus4	-0.16806784
-4.242692	feralcall	-0.24929884
-4.112241	seqq	-0.5351962
-4.242692	drum-bank	-0.29338807
-3.636388	pack,	-0.4483158
-4.242692	random_range	-0.16806784
-4.242692	freqm~	-0.16806784
-4.0182853	mute	-0.16806789
-4.242692	input_control	-0.16806784
-4.242692	puma.led.blink	-0.26507026
-4.242692	mage~	-0.16806784
-4.242692	analyserythme	-0.16806784
-4.0182853	fromsymbol	-0.16806789
-4.242692	woaha	-0.16806784
-4.112241	stereo-lining	-0.5351962
-4.242692	apvdel	-0.16806784
-4.112241	#for	-0.26507026
-4.242692	#remap_image	-0.16806784
-3.4933841	moog~	-0.24206598
-4.242692	netpd-list2symbol	-0.16806784
-3.636388	demultiplex~	-0.3710047
-4.242692	list-filter	-0.16806784
-4.242692	keyup	-0.37940124
-4.242692	ml.libsvm	-0.16806784
-4.112241	gameAccordSynth~,	-0.3133474
-4.112241	shadylib/neadsr~	-0.43828616
-3.636388	cyclone/gate	-0.34016663
-4.112241	maxlib/gauss	-0.26507026
-4.242692	universal	-0.26507026
-4.0182853	link2D	-0.27222455
-4.242692	gems.i.rect	-0.16806784
-3.8510334	ggee/getdir	-0.2537468
-4.112241	j.receive	-0.16806784
-4.242692	comb.rev~	-0.16806784
-4.0182853	ø.param	-0.40864876
-4.242692	waveSelect~	-0.16806784
-4.242692	radioToggle2	-0.16806784
-3.8510334	json-encode	-0.42079392
-4.242692	mx-early-a	-0.16806784
-4.242692	rsk_daily_playlist	-0.16806784
-4.242692	rsk_get_streamurl_from_locid	-0.16806784
-4.242692	rsk_icecast	-0.16806784
-4.242692	Sequencer9	-0.16806784
-4.0182853	scaler	-0.27222455
-4.112241	Envelopes/trigenv~	-0.26507026
-4.242692	BPD_midi-voice	-0.26507026
-4.0182853	st-phaser-patch.meh	-0.23027262
-3.5590265	fx_switch	-0.6143774
-4.242692	evil-signal-to-2x8bit	-0.26507026
-4.242692	geps.sampleplayer	-0.16806784
-4.242692	geps.em-gyro	-0.16806784
-4.242692	sequencerpitch	-0.26507026
-4.242692	@import	-0.16806784
-4.242692	@scale_by	-0.16806784
-4.242692	u_listnth	-0.16806784
-4.112241	linearscale	-0.3133474
-4.242692	multi_sources	-0.16806784
-4.242692	pdmus/populate-rhythm	-0.16806784
-3.5590265	oscparam	-0.24747793
-3.8510334	canvasindex	-0.6491395
-4.0182853	sin	-0.16806784
-4.242692	waveosc~	-0.16806784
-4.242692	pix_filmQT	-0.16806784
-4.242692	version	-0.16806784
-4.242692	s_playtable2	-0.48943868
-4.242692	sdObjInterface	-0.16806784
-4.0182853	else/pack2	-0.21386641
-4.242692	cyclone/edge~	-0.16806784
-4.112241	pmenu	-0.33677343
-4.242692	output_state	-0.16806784
-4.112241	fx_gain~	-0.23027262
-4.242692	phrases-weighcolors	-0.3133474
-4.112241	phrases-makecolor	-0.5351962
-4.242692	./output~	-0.16806784
-4.242692	microserver	-0.16806784
-4.242692	ureceive~	-0.16806784
-4.242692	dry-wet	-0.16806784
-4.112241	usend~	-0.26507026
-4.0182853	ali.gain2	-0.23027262
-4.242692	else/above	-0.16806784
-4.242692	mydelay	-0.16806784
-4.242692	rec/gui	-0.16806784
-4.242692	apuredis	-0.26507026
-4.112241	abs_uniquecatch1	-0.16806784
-4.112241	REVERB~	-0.6143774
-4.0182853	compressor~	-0.21386641
-4.242692	chair.speed	-0.16806784
-4.112241	make-choice-list	-0.23027262
-3.385985	threshold~	-0.3123559
-4.242692	susloop~	-0.16806784
-4.242692	measure-high	-0.16806784
-4.242692	fmvoice	-0.3133474
-4.242692	16stps______________________vlr______T___SCRATCH	-0.7904687
-4.242692	AbsSel	-0.16806784
-4.242692	AbsVol	-0.16806784
-4.112241	ofelia_label	-0.27222455
-4.242692	ofelia_bang	-0.16806784
-4.242692	scale.adaptive	-0.16806784
-4.242692	FruitReceive	-0.16806784
-4.242692	8_streamers~,	-0.6143774
-4.242692	amb/spat~	-0.16806784
-4.242692	amb/decoder~	-0.16806784
-4.242692	amb/outs_ds	-0.16806784
-4.242692	sh.adsr	-0.16806784
-4.242692	qlist,	-0.16806784
-4.242692	bl_looper	-0.16806784
-3.8510334	imageTouchOnOff	-0.29338807
-4.242692	midiparse	-0.23027262
-4.242692	vcf_hp2~	-0.16806784
-4.0182853	s2f~	-0.24385892
-4.242692	fx_\$3_6~	-0.16806784
-4.242692	bsaylor/partconv~	-0.16806784
-4.242692	time_stretch	-0.16806784
-4.112241	crossfader	-0.16806784
-3.8510334	once	-0.20431216
-4.242692	mtl/blockmirror~	-0.16806784
-3.5590265	mtl/out~	-0.73931617
-4.242692	partialgroup	-0.3133474
-4.242692	iemguts/canvasdelete	-0.3133474
-4.242692	voxPitcher~	-0.26507026
-4.242692	birdFilter~	-0.26507026
-4.242692	load_run_buttons_and_instruction_reader_router_sfgem	-0.16806784
-4.242692	memory-encoder	-0.16806784
-4.112241	e_repeater	-0.16806784
-3.5590265	mtx	-0.23027262
-4.242692	early_echos20_2_4~	-0.16806784
-4.242692	late_diffuse20_4~	-0.16806784
-3.5590265	lp2~	-0.24206598
-4.242692	extra/period_to_tempo	-0.16806784
-4.112241	tbc-utils/tbc-sample-player	-0.57658887
-4.112241	ambi_decode3	-0.16806789
-4.112241	gl.draw	-0.16806789
-4.242692	gl.triangle,	-0.16806784
-4.112241	s_playtable	-0.2244993
-4.112241	dictionary-standalone	-0.4483158
-3.7305827	any	-0.24206598
-4.242692	\$3_early1_encode_5o_3d~	-0.26507026
-3.636388	rmstodb	-0.19805747
-4.242692	easyflow/listConcatenate	-0.16806784
-4.0182853	invert	-0.23027262
-4.0182853	netpd-fifo	-0.23027262
-4.112241	phaseosc~	-0.26507026
-4.112241	Gate3	-0.16806784
-4.112241	spot_light	-0.26507026
-4.112241	vdl	-0.23027262
-3.8510334	sdGate	-0.23466094
-4.242692	cd4072	-0.16806784
-4.112241	normalize	-0.16806784
-4.112241	busrme	-0.3133474
-4.112241	lrshift~	-0.23027262
-4.242692	GranSynLF	-0.16806784
-3.7305827	zac.lumiere	-0.39767575
-4.242692	midi-player	-0.21386641
-4.242692	chord-make	-0.16806784
-4.112241	cuboid	-0.26507026
-4.112241	polarToCart	-0.16806784
-3.4933841	print~	-0.87761885
-4.112241	chair.touchgate~	-0.16806784
-4.112241	chair.hex-mapping	-0.16806784
-4.242692	chair.capsense	-0.16806784
-4.112241	abs/getsetelement2	-0.87761885
-4.112241	vh_motor_seq	-0.26507026
-4.242692	fx_\$4_8~	-0.16806784
-4.112241	nrpn_out	-0.26507026
-4.112241	ps.16step	-0.26507026
-4.242692	read_1-16_2	-0.6143774
-4.242692	rest-json	-0.27222455
-4.242692	Effect_AB_Switch~	-0.16806789
-4.242692	Phaser~	-0.16806784
-4.0182853	Wet_Dry_Mix~	-0.3133474
-4.242692	multiFilm	-0.16806784
-4.112241	kal_gut2	-0.7904687
-4.242692	formant-fake	-0.16806784
-4.242692	delaysystem	-0.16806784
-4.242692	vj_quarter	-0.3133474
-4.112241	karmaFiddle	-0.26507026
-4.242692	pcap_file	-0.16806784
-3.8510334	fixScaleX	-0.23466094
-4.242692	reposetoi	-0.26507026
-4.242692	extra/midiLearn	-0.16806784
-4.0182853	sfread2~	-0.27222455
-4.242692	resonant~	-0.16806784
-4.242692	Distortion/distortion~	-0.16806784
-4.112241	mtcf-rectangle	-0.26507026
-4.242692	cmplxmult~	-0.16806784
-4.0182853	monitor~	-0.3133474
-4.242692	c.patcherinfos	-0.16806784
-4.242692	hoa.help.header	-0.16806784
-4.242692	./test-param	-0.16806784
-4.0182853	wiringPi_gpio	-0.87761885
-4.242692	s8_select	-0.6143774
-4.242692	else/note	-0.16806784
-4.242692	newWave	-0.16806784
-4.242692	cyclone/loadmess	-0.16806784
-4.112241	cyclone/capture	-0.16806784
-4.242692	random-ramp	-0.16806784
-4.112241	polygate~	-0.5351962
-4.112241	imageTouch	-0.36913455
-4.242692	eqgain~	-0.16806784
-4.242692	getpresets	-0.16806784
-4.242692	sdPackFromHuman	-0.68740237
-4.242692	STPcolorbar8	-0.43828616
-4.242692	grandel/grandelback2.2	-0.23027262
-3.7305827	routingcell-s	-0.62440705
-4.0182853	cputime	-0.33897597
-4.242692	mega-sequencer	-0.16806784
-4.112241	basic-osc	-0.16806784
-3.4933841	basic-lfo	-0.20853256
-4.242692	couchdb	-0.16806784
-4.112241	fruit/receive	-0.20431216
-4.112241	b-format-encoder~	-0.3133474
-4.242692	ambi-4ch-2D-decoder~	-0.3133474
-4.242692	s24-voice	-0.16806784
-4.242692	../WFormUnit/tri_waveII	-0.16806784
-4.242692	4switch~	-0.16806784
-4.242692	dilemma	-0.16806784
-4.242692	plts~	-0.16806784
-4.242692	poffbo	-0.16806784
-4.242692	tr808-hh~	-0.23027262
-4.242692	krunch~	-0.16806784
-4.242692	faustflange~	-0.26507026
-3.7305827	crossfadeequal~	-0.62440705
-4.242692	abs/comp	-0.26507026
-4.242692	cyclone/bondo	-0.16806784
-4.112241	ofDefine	-0.16806784
-4.242692	ofWindowLoadBang	-0.16806784
-4.242692	abs_delayline1filt	-0.16806784
-4.112241	bufGranul~	-0.26507026
-4.242692	caradisio~	-0.16806784
-4.0182853	alternate	-0.16806789
-4.242692	gil_mouseover_circle	-0.16806784
-4.242692	gil_drag&drop	-0.16806784
-4.112241	pingpongdelay~	-0.43828616
-4.242692	sect-midi-client-lua	-0.16806784
-4.242692	touchout	-0.16806784
-4.242692	abs_graindelay_particle3_s	-0.16806784
-4.242692	sequenced_player_jdn	-0.16806784
-4.242692	tLine2D	-0.16806784
-4.112241	vs-3D-wav	-0.26507026
-4.242692	center	-0.39542687
-4.242692	acc	-0.16806784
-4.242692	%,	-0.16806784
-4.242692	disarray~	-0.16806784
-4.242692	bl-saw.mmb~	-0.16806784
-4.242692	ctlin,	-0.26982665
-4.242692	d-fbdelay~	-0.26507026
-4.242692	zirk_layout	-0.16806784
-4.112241	ofDrawTextAsShapes	-0.16806784
-4.242692	ofPopMatrix	-0.16806784
-4.242692	ofPopStyle	-0.16806784
-4.242692	gems.record	-0.26507026
-4.242692	pdmus/midi-sync,	-0.39476538
-4.242692	PofPartSeq	-0.26507026
-4.0182853	rgb2hsv	-0.21386641
-4.242692	loca.ambience	-0.16806784
-4.242692	cyclone/next	-0.26507026
-4.242692	tr808-bd~	-0.16806784
-4.242692	select,	-0.16806784
-4.242692	sp-ghub16~	-0.16806784
-4.242692	tap	-0.16806784
-4.0182853	mesh_square	-0.5351962
-4.112241	tb_peakcomp~	-0.24929884
-4.242692	chorusfilter_nobeating	-0.16806784
-4.242692	_until	-0.16806784
-4.242692	selector	-0.21386641
-4.0182853	audio_mix	-0.43828616
-4.242692	rrr_transf_elv_azm	-0.6143774
-4.112241	list-seek	-0.23027262
-4.242692	automator	-0.16806784
-4.112241	e_softclip	-0.16806784
-4.112241	frame-const	-0.43951613
-4.0182853	hoa.map~	-0.23027262
-4.242692	hoa.freeverb~	-0.26507026
-4.0182853	hoa.rotate~	-0.24929884
-4.112241	openda_bus	-0.26507026
-4.112241	smoother	-0.21386641
-4.242692	Local2	-0.16806784
-3.8510334	limiter~	-0.62951005
-4.112241	oggcast~	-0.26982665
-4.242692	k_multi_spec	-0.26507026
-4.242692	funpack~	-0.16806784
-4.0182853	triangle	-0.3133474
-4.242692	else/brown~	-0.23027262
-4.112241	folder3	-0.21386641
-4.242692	pil	-0.16806784
-4.242692	changeany	-0.16806784
-4.112241	hoa.thisprocess~	-0.16806784
-3.8510334	c.prepend	-0.16806784
-4.112241	countwrap	-0.36913455
-3.7305827	pix_contrast	-0.16806784
-4.242692	stepsekrampB	-0.26507026
-4.242692	aVolMaster	-0.16806784
-4.242692	monochannelstrip	-0.16806784
-4.242692	tabGetMany	-0.16806784
-4.242692	total	-0.5732546
-4.242692	ø.model	-0.16806784
-4.242692	a_randseqbars	-0.16806784
-4.0182853	ofHead	-0.21386641
-4.242692	ofSepMatrix	-0.26507026
-4.242692	mtl/qtrack	-0.16806784
-4.112241	pix_flip	-0.20431216
-4.112241	purepd/once	-0.16806784
-4.112241	abs-router	-0.16806784
-4.242692	gf/tk_button	-0.16806784
-4.112241	else/pan4~,	-0.16806784
-4.112241	gammegui	-0.36913455
-4.112241	Polygon2	-0.26507026
-4.242692	iemguts/savebangs	-0.16806784
-4.242692	else/quantizer	-0.16806784
-4.242692	listSearch	-0.16806784
-4.242692	printHere	-0.16806784
-4.242692	EATi_dynwrapperfilters~	-0.26507026
-4.242692	vs-octahedron	-0.16806784
-4.112241	../../core/s_fm-synth-core-001	-0.3133474
-4.242692	oggread~	-0.16806784
-4.112241	statfeed	-0.23027262
-4.242692	gl.sphere	-0.26507026
-4.242692	mtx_size	-0.16806784
-4.112241	tabread4	-0.16806789
-4.242692	savestate_selector_A	-0.19805747
-4.242692	savestateTA	-0.26507026
-4.0182853	cyclone/scale	-0.16806784
-4.242692	d-triad	-0.16806784
-4.112241	minimax,	-0.16806784
-4.112241	svfilter~	-0.16806784
-3.8510334	xselect~	-0.21386641
-4.242692	poffluid	-0.26507026
-4.0182853	\$5	-0.23027262
-4.242692	switchr	-0.16806784
-4.242692	tt-screens~	-0.16806784
-4.242692	ofDragged	-0.16806784
-4.242692	d-1-	-0.16806784
-4.242692	puma.press.switch	-0.16806784
-4.242692	puma.led.toggle	-0.16806784
-4.0182853	hoa.encoder~	-0.22082189
-3.636388	hoa.optim~	-0.24206598
-4.0182853	atodb~	-1.0123174
-4.242692	face_preset_sfgem,	-0.16806784
-4.112241	folder1	-0.23027262
-4.242692	listgroup	-0.16806784
-4.242692	timing.tempo_	-0.16806784
-4.242692	posdoc	-0.16806784
-4.0182853	cpt	-0.24929884
-4.242692	pix_opencv_calibration	-0.16806784
-4.242692	ls.iter	-0.16806784
-4.112241	pdp-effects	-0.16806784
-4.242692	stream_to_ffserver	-0.16806784
-4.242692	ehu/gem/video	-0.16806784
-4.0182853	pix_record	-0.3802942
-4.0182853	s_graincloud	-0.3133474
-4.242692	m_modedict2	-0.26507026
-4.0182853	pix_freenect	-0.31173876
-4.242692	downmix	-0.26507026
-3.4933841	autoscale	-0.28665006
-4.112241	track	-0.16806784
-4.0182853	poffonts	-0.24385892
-4.112241	listmover	-0.3133474
-4.242692	sp	-0.16806784
-4.242692	changemorethan	-0.16806784
-4.242692	out38	-0.16806784
-4.242692	lfo_3	-0.26507026
-4.242692	invierte	-0.16806784
-4.242692	acelerometro	-0.16806784
-4.112241	throttle-net-bound	-0.26507026
-4.112241	midirealtimein	-0.33364373
-4.242692	multicycle	-0.37256932
-4.112241	gcanvas	-0.16806789
-4.242692	savestateITA	-0.16806784
-4.112241	>~	-0.16806784
-4.112241	edge~	-0.16806784
-4.242692	list-add	-0.36913455
-4.242692	wavpreload-getsamples	-0.16806784
-4.242692	countup	-0.16806784
-4.112241	mtcf-rgbcolor	-0.26507026
-4.242692	record_file	-0.16806784
-4.0182853	iemguts/propertybang	-0.26982665
-4.242692	a.wavsampler2~	-0.16806784
-4.112241	core/m_3band-eq	-0.26507026
-4.242692	\$3_early1_encode_4o_3d~	-0.26507026
-4.112241	cross-over-out	-0.3133474
-4.112241	beautifysymbol	-0.26507026
-4.242692	wave-sampler	-0.16806784
-4.112241	snare	-0.16806784
-4.242692	mi	-0.16806784
-4.112241	quantizer	-0.26507026
-4.112241	rj/u_listloop	-0.26507026
-4.242692	phaseMod_osc~	-0.16806784
-4.242692	bicoeff	-0.16806784
-4.112241	gemlist_info	-0.27222455
-4.242692	oscs	-0.16806784
-4.242692	seq3	-0.26507026
-4.0182853	populate_rhythm	-0.16806789
-4.242692	mb-gem_mp_bufferbase	-0.16806784
-4.242692	and	-0.16806784
-4.0182853	u_magic-freq	-0.43828616
-4.0182853	midi_chord_estimator	-0.16806789
-4.112241	core/m_gogins-pan	-0.43828616
-4.242692	cyclone/round	-0.16806784
-4.242692	pyext~	-0.16806784
-3.8510334	pix_metaimage	-0.5351962
-4.112241	st2ten.ampControl~	-0.3802942
-4.242692	o_pack	-0.16806784
-4.112241	abs.creator1	-0.26507026
-4.242692	list-slice	-0.16806784
-4.112241	hoa.delay~	-0.27222455
-4.242692	u_midi_learn	-0.16806784
-4.242692	triad	-0.16806784
-4.112241	clock-divider-odd	-0.16806784
-4.112241	stereo-delay	-0.16806784
-4.242692	trigger-delay	-0.16806784
-4.242692	ctl2mcp	-0.16806784
-4.242692	spatosc	-0.3133474
-4.112241	bangloop	-0.23027262
-4.242692	vid.play.img~	-0.16806784
-4.242692	rc-drumseq16	-0.16806784
-4.242692	scrollList/gui	-0.16806784
-4.242692	rc-pshift~	-0.16806784
-4.112241	lxpx	-0.3133474
-3.8510334	split	-0.16806784
-4.242692	cg-print-kb	-0.16806784
-4.242692	list_\$1	-0.26507026
-4.242692	ffdelay~	-0.26507026
-4.112241	isotriangle_wrapper_audio	-0.26507026
-4.112241	function	-0.16806789
-4.242692	function~	-0.16806784
-4.242692	tSphere3D	-0.94891816
-4.242692	int~	-0.16806784
-4.242692	sourcectrl~	-0.16806784
-4.112241	boids/boids3d	-0.16806789
-3.7305827	list2symbol	-0.27895072
-4.242692	FireFader~	-0.16806784
-4.242692	contact~	-0.16806784
-3.8510334	-,	-0.16806784
-3.5590265	/,	-0.23027262
-4.242692	randomf	-0.16806784
-4.242692	sample-recorder~	-0.16806784
-4.242692	else/cents2ratio	-0.16806784
-3.8510334	sdUnPack	-0.19805747
-4.242692	zmq/zmq	-0.16806784
-4.112241	midisel2	-0.26507026
-4.112241	iem_delay/n_delay1p_line~	-0.43828616
-4.242692	zirk_id	-0.16806784
-4.242692	onoff26	-0.16806784
-4.242692	out26	-0.16806784
-4.242692	count.iter	-0.16806784
-4.242692	usss.hslider	-0.21386641
-4.242692	random-list	-0.16806784
-4.242692	quack-panel	-0.16806784
-3.8510334	onebang	-0.26982665
-4.242692	emptysymbol	-0.23027262
-4.242692	out-panel	-0.16806784
-4.242692	nc_mono_synth~	-0.16806784
-4.242692	tcpsend	-0.16806784
-4.242692	ctxfiles/ev	-0.3133474
-4.242692	partgrupo2-toca~	-0.26507026
-4.242692	ADSRexponencial~	-0.16806784
-4.112241	curveGen	-0.26507026
-4.242692	fluidflow~	-0.21386641
-4.242692	ofRemoveList	-0.16806784
-4.242692	mm_osc3~	-0.6143774
-4.242692	randomPlayer	-0.43828616
-4.242692	min_n	-0.16806784
-3.636388	bwl-osc	-0.23027262
-4.242692	lpg	-0.16806784
-4.242692	hammond-knobs	-0.16806784
-4.242692	unpackRTP	-0.16806784
-4.242692	L16decode	-0.16806784
-4.242692	db2v	-0.5351962
-4.242692	iAmbient3D	-0.16806784
-4.112241	aoo_receive~	-0.27078423
-4.242692	amptodb~	-0.16806784
-4.242692	ms2samps~	-0.16806784
-4.242692	player-output	-0.16806784
-4.242692	m_speedlimit	-0.16806784
-4.112241	faustpeakeq~	-0.5351962
-4.112241	fausthighshelf~	-0.7904687
-4.112241	objtty	-0.43828616
-4.112241	mik-tabwrite	-0.3133474
-4.242692	s_looper	-0.34736606
-4.112241	operator	-0.16806784
-4.112241	spectrogram	-0.26507026
-4.242692	valueorupdate	-0.26507026
-4.0182853	gpan~	-0.48943868
-4.242692	midi-pgm	-0.23027262
-4.242692	else/compress~	-0.16806784
-4.0182853	atoi	-0.16806789
-4.0182853	mtl/indexer	-0.23027262
-4.242692	osci/chris_clip~	-0.16806784
-4.242692	convert-to-cartesian	-0.16806784
-4.242692	lfor	-0.16806784
-4.242692	vabs/forloop	-0.26507026
-4.0182853	mtl/gemsWin	-0.16806789
-4.242692	pitchshifter	-0.16806784
-4.242692	biquad_poly	-0.16806784
-4.112241	attack_detect	-0.23027262
-4.242692	expr_scale	-0.16806784
-4.242692	zconf.service	-0.16806784
-4.0182853	channel_process	-0.6143774
-4.242692	r_note_on	-0.16806784
-4.242692	r_send_note_on	-0.16806784
-4.242692	sdGate~	-0.16806784
-4.242692	sdSig2Num~	-0.16806784
-4.242692	ar.dspGen	-0.16806784
-4.112241	sliders,	-0.26507026
-4.112241	-1	-0.16806784
-4.242692	physicalModel~	-0.16806784
-4.112241	instr/ctltou	-0.21386641
-4.112241	pix_opencv_contours_boundingrect	-0.16806784
-4.242692	receive_regname	-0.32848006
-4.112241	sIN~	-0.6813242
-3.636388	realtime	-0.23871414
-4.242692	dklineexp~	-0.16806784
-4.112241	tof/path	-0.16806784
-4.0182853	pofrotate	-0.16806789
-4.242692	gdcell2.3	-0.3133474
-4.242692	cvcontrol	-0.16806784
-4.242692	sdObjState_events_compact_ui	-0.16806784
-4.112241	sdObjState_box_helper	-0.26507026
-4.242692	phrases-editor	-0.16806784
-4.242692	lfo_tri	-0.16806784
-4.242692	FM_voice	-0.16806784
-4.242692	master_vol	-0.16806784
-4.242692	Prepa	-0.16806784
-4.242692	sf-varispeed2~	-0.16806784
-4.242692	broadcastrecv	-0.16806784
-4.242692	rh_trline	-0.16806784
-4.242692	netpd-error	-0.16806784
-4.242692	seq-toggles	-0.16806784
-4.242692	belowTresh~	-0.16806784
-4.242692	gameAccordSynth~	-0.16806784
-4.242692	pp.graindelay~	-0.26507026
-4.242692	selectNdisplay1	-0.16806784
-3.8510334	getsize	-0.43828616
-3.7305827	list_fromsymbol	-0.23027262
-4.242692	1,	-0.16806784
-4.242692	os.wavetable2d~	-0.16806784
-4.112241	net/udpsend	-0.16806784
-4.242692	list-union-merge	-0.16806784
-4.242692	hoa.2d.map	-0.16806784
-4.242692	waveshape~	-0.16806784
-3.8510334	list-math	-0.20431216
-4.242692	triggerlogic	-0.16806784
-4.242692	text-file-reader	-0.16806784
-4.242692	kee-n	-0.16806784
-3.7305827	zexy/nop	-0.23027262
-4.242692	cz	-0.16806784
-4.242692	650	-0.16806784
-4.242692	hcs/hostname	-0.26507026
-4.0182853	karpluck~	-0.7904687
-4.242692	phase_shaper~	-0.16806784
-4.242692	FreqShift~	-0.16806784
-4.242692	set-directory	-0.16806784
-4.242692	nrpn_in	-0.16806784
-4.0182853	range	-0.21386641
-4.112241	libs/glsl/qfx	-0.23027262
-4.242692	phonewait	-0.16806784
-4.242692	loopermidiout	-0.16806784
-4.242692	geps.scale	-0.16806784
-4.242692	pipe_fx_s_48~	-0.16806784
-4.242692	pipe_mix~	-0.16806784
-4.242692	pipe_fx_t~	-0.16806784
-4.242692	STPcolorbar3	-0.26507026
-4.242692	rms~	-0.16806784
-4.242692	checkbutton	-0.16806784
-4.242692	sigzero~	-0.16806784
-3.8510334	demux~	-0.24929884
-4.112241	efx.puncher~	-0.16806784
-4.242692	tools/mat.gnbx2	-0.16806784
-4.112241	\$3_early2_encode_4o_3d~	-0.5351962
-4.242692	./unpack-serverseqinst	-0.5351962
-4.242692	a4looperback2-s	-0.3133474
-4.242692	shuffle	-0.26507026
-4.242692	xgate2~	-0.16806784
-4.112241	out	-0.3133474
-4.242692	transpose-row	-0.16806784
-3.8510334	show	-0.27222455
-4.242692	FilmSoundPlayer	-0.16806784
-4.242692	oKontrol	-0.16806784
-3.8510334	surround/random-speaker	-0.7904687
-4.242692	smbola~	-0.16806784
-4.242692	_gemtxt	-0.16806784
-4.242692	sr_setting	-0.3133474
-4.242692	../my-env	-0.16806784
-4.242692	hoban_s_playtable	-0.16806784
-4.242692	complex_sub.mmb~	-0.16806784
-4.242692	complex_div.mmb~	-0.16806784
-4.242692	sequenciador	-0.16806789
-4.242692	aditiva	-0.16806784
-4.242692	fir	-0.16806784
-4.112241	lowpass~	-0.26507026
-4.242692	ct	-0.16806784
-4.112241	abs_rezdelayline1	-0.16806784
-4.242692	metro_bpm	-0.16806784
-4.112241	dire	-0.3133474
-4.242692	poke~	-0.16806784
-4.242692	msg.onload	-0.16806784
-4.242692	ui.number	-0.16806784
-4.112241	drum-spin	-0.43828616
-4.242692	fx/filter~	-0.3133474
-4.112241	fx/filter3~	-0.27222455
-4.242692	j.modular	-0.26507026
-4.242692	img	-0.3133474
-4.242692	gen20	-0.26507026
-4.242692	list_cat	-0.16806784
-4.242692	scale-changer	-0.16806784
-4.0182853	pix_opencv_colorfilt	-0.23027262
-4.0182853	samplorpd~	-0.21386641
-4.112241	send-vu	-0.3133474
-4.242692	h_vector	-0.16806784
-4.112241	16stepsequencer	-0.3133474
-4.242692	gaten	-0.28937414
-4.242692	#export_list	-0.16806784
-4.112241	map_min-max	-0.23027262
-3.7305827	list_append,	-0.23466094
-4.242692	instruments/PopupMulClock	-0.16806784
-4.242692	hid/keyboard	-0.26507026
-4.242692	jl/split~	-0.16806784
-4.242692	radioToggleLong	-0.43828616
-4.242692	master-ctrl	-0.16806784
-4.112241	bulb	-0.43828616
-4.112241	sg	-0.6143774
-4.242692	row2	-0.16806784
-4.242692	compress	-0.16806784
-4.112241	effects	-0.23027262
-4.242692	d-out~	-0.16806784
-4.242692	../generics/deviation	-0.16806784
-4.242692	OUTPUT~	-0.16806789
-4.242692	har~	-0.16806784
-4.242692	oscilloscope	-0.16806784
-4.242692	key-estimate	-0.16806784
-4.242692	ax_read~	-0.16806784
-4.112241	list-nth	-0.43828616
-4.242692	hercinp_test_midiin	-0.16806784
-4.112241	hercinp_input_type	-0.16806784
-4.242692	rwa_binauralsimple~	-0.16806784
-4.242692	delay-line	-0.16806784
-4.242692	cd4014	-0.3133474
-4.242692	flatgui/popup	-0.16806784
-4.242692	FM_toc	-0.16806784
-4.112241	config	-0.23027262
-4.242692	op~	-0.16806784
-4.242692	../netpd-server2/tcpsocketserver	-0.16806784
-4.242692	dsf~	-0.16806784
-4.242692	shared	-0.16806784
-4.242692	gtfs	-0.16806784
-3.7305827	jrange	-0.39542687
-4.242692	floatcount	-0.26507026
-4.242692	ofLerpRadians	-0.16806784
-4.112241	list-dripslow	-0.16806784
-4.242692	s13	-0.26507026
-4.242692	ps.saturation~	-0.16806784
-3.7305827	\$3	-0.2182797
-4.242692	fresh/net.httpget	-0.16806784
-4.242692	retroseq~	-0.26507026
-4.242692	mtl/cymbal~	-0.16806784
-4.112241	vanilla.table.transfer	-0.26507026
-4.242692	flick	-0.16806784
-4.112241	vca~	-0.16806784
-4.242692	alto	-0.16806784
-4.0182853	zscale	-0.47948605
-4.242692	cooled~	-0.16806784
-4.242692	mtr	-0.16806784
-4.242692	u_makepolymono	-0.16806784
-4.242692	c_midiplay	-0.16806784
-4.242692	amplitude_n	-0.26507026
-4.242692	gemnotes_counter	-0.16806784
-4.112241	mtl/theMatrix	-0.26507026
-4.242692	luavm	-0.16806784
-4.112241	faustlowshelf~	-0.43828616
-4.242692	gem_display	-0.3133474
-4.242692	lp_hledstrip	-0.16806784
-4.242692	randompitch	-0.16806784
-4.242692	out45	-0.26507026
-4.242692	cyclone/substitute	-0.16806784
-4.242692	inoutoutinquart	-0.16806784
-4.242692	Local1	-0.16806784
-4.112241	fx_matrix_8~	-0.3802942
-4.112241	dline2~	-0.16806784
-4.242692	a3	-0.16806784
-4.242692	fx_gain_5~	-0.16806784
-4.242692	abstraction-1	-0.16806784
-4.242692	drunken_fader	-0.16806784
-4.112241	sgPropertySym	-0.16806784
-4.242692	_muteLogic	-0.16806784
-4.242692	rc-voice_dist~	-0.16806784
-4.112241	plus	-0.23027262
-3.636388	vol~	-0.5152626
-4.112241	pddom.get	-0.16806784
-4.112241	ctxfiles/gm	-0.9154074
-4.242692	netpd-find-sync	-0.26507026
-4.112241	ofPack	-0.6143774
-4.242692	mcnetsend	-0.16806784
-4.242692	mx-insert-control	-0.26507026
-4.112241	polymetro	-0.26507026
-4.242692	16stps______________________vlr______T___SCRATCH1	-0.87761885
-4.242692	nqpoly4	-0.26507026
-4.0182853	m	-0.16806784
-4.112241	Vmull~	-0.26507026
-4.242692	p.poly	-0.16806784
-3.8510334	oscfmt	-0.5732546
-4.0182853	state-manager	-0.27222455
-4.112241	pulse	-0.16806789
-4.242692	pix_opencv_bgsubstract	-0.16806784
-4.0182853	ev_buf	-0.24385892
-4.242692	pspread~	-0.16806784
-4.242692	circle7~	-0.16806784
-4.242692	hz2bark	-0.16806784
-4.242692	lerdahl	-0.26507026
-4.0182853	fruit/send2	-0.27222455
-4.0182853	list,	-0.24385892
-4.242692	atc-horseOsc-feedbackAtten	-0.16806784
-4.112241	loadmess	-0.16806784
-4.0182853	else/vu~	-0.16806789
-4.112241	fm_synth	-0.3133474
-4.242692	EATi_Behaviourlines~	-0.16806784
-4.112241	MusicalCell_abs	-0.26507026
-4.242692	wg/wave/out~	-0.16806784
-4.242692	wg/damp/simple~	-0.16806784
-4.242692	wg/wave/in~	-0.16806784
-4.242692	fftease-system	-0.16806784
-4.242692	random_tw	-0.16806784
-4.112241	rescale	-0.23027262
-4.112241	dfbe	-0.57658887
-4.242692	midifile,	-0.16806784
-4.242692	video-player	-0.16806784
-4.242692	u_samplebank2	-0.16806784
-4.242692	ev_pro_22	-0.16806784
-4.242692	array_remove_extended	-0.16806784
-4.0182853	of.plane	-0.16806789
-4.242692	realoca_vetor	-0.16806784
-4.242692	phaser~	-0.16806784
-4.242692	cyclone/atan~	-0.16806784
-4.242692	percentcounternode~	-0.16806784
-4.242692	colorgrid	-0.16806784
-4.242692	ext13/catch13~	-0.3133474
-4.242692	pd/onOff	-0.16806784
-4.242692	boid	-0.16806784
-4.242692	ctxfiles/t2l2	-0.16806784
-4.242692	jl/feedfm~	-0.16806784
-4.112241	Loopstation	-0.21386641
-4.0182853	*,	-0.21386641
-4.242692	looper_main-0-0-3	-0.27222455
-4.112241	samplorkg	-0.26507026
-4.242692	chris_clip~	-0.16806784
-4.242692	rp	-0.16806784
-4.0182853	lfo	-0.36913455
-4.242692	daThingFishHandsOut	-0.16806784
-4.242692	unstep-midi-control	-0.16806784
-4.112241	parentposition	-0.26507026
-4.112241	sdSeqPlayer	-0.26507026
-4.112241	hann~	-0.23027262
-4.242692	faust-gate	-0.21386641
-4.242692	piano~	-0.26507026
-4.242692	ofFillList	-0.16806784
-4.242692	io	-0.16806784
-4.242692	im.keyhold	-0.16806784
-3.8510334	im.speaker	-0.5351962
-4.242692	utils/adc_	-0.16806784
-4.242692	reader	-0.16806784
-4.242692	im.noise	-0.16806784
-4.242692	im.fader,	-0.16806784
-4.242692	\$3_direct_encode_5o_2d~	-0.16806784
-4.112241	radio	-0.26507026
-4.0182853	shutdown	-0.21386641
-4.242692	meter1~	-0.16806784
-4.242692	pix_opencv_hough_lines	-0.16806784
-4.242692	else/gray~	-0.16806784
-4.242692	arraycopy	-0.3133474
-4.242692	core/pitch_shifter~	-0.16806784
-4.242692	test	-0.26507026
-4.242692	abs_grainsampler1	-0.5351962
-3.7305827	muse	-0.3643519
-4.242692	si_gem_rect4	-0.16806784
-4.0182853	ADSR	-0.23027262
-4.242692	bus	-0.16806784
-4.112241	faustrevmono~	-0.26507026
-4.242692	can~	-0.16806784
-4.0182853	pix_shader	-0.24385892
-4.112241	sdPropertyList	-0.27222455
-4.242692	ml-anbc	-0.16806784
-4.242692	usss.output6	-0.16806784
-4.242692	z-u_loader	-0.16806784
-4.0182853	z-u_dispatch	-0.16806789
-4.0182853	rampnoise~	-0.22082189
-4.242692	zerocross~	-0.16806784
-4.112241	trig2bang~	-0.16806784
-4.112241	joystick	-0.16806784
-4.242692	granreader	-0.29338807
-4.242692	8-grain-cluster	-0.16806784
-3.8510334	pix_kaleidoscope	-0.43951613
-4.242692	iemlib/once	-0.16806784
-4.242692	abstract_test	-0.43828616
-4.242692	dv1394src	-0.16806784
-4.242692	dvdemux	-0.16806784
-4.112241	Gate	-0.5351962
-4.112241	sr~	-0.16806784
-4.242692	hz2rad	-0.16806784
-4.242692	depth	-0.16806784
-4.242692	bytemask	-0.26507026
-4.112241	debytemask	-0.23027262
-4.242692	biquad.mmb~	-0.16806784
-4.242692	list.normalize	-0.16806784
-4.242692	list.sum	-0.16806784
-4.242692	lobject	-0.16806784
-4.242692	ambi2_encode	-0.16806784
-4.0182853	round_zero	-0.23027262
-4.242692	shufflsf~	-0.16806784
-4.242692	vst~	-0.16806784
-4.112241	sub/seq	-0.3133474
-4.112241	else/fromany	-0.43828616
-4.242692	probalizer	-0.16806784
-4.112241	analog_assign	-0.43828616
-4.242692	fillcountry~	-0.16806784
-4.242692	onoff	-0.16806784
-4.242692	list_1	-0.16806784
-4.242692	pdp_mgrid	-0.16806784
-4.242692	Tuner/tuner~	-0.16806784
-4.0182853	TETRA_sequencer	-0.43828616
-4.112241	c_lfo	-0.36913455
-4.242692	msgtree	-0.16806784
-4.112241	u_wrandom	-0.16806784
-4.112241	granular,	-0.73931617
-4.242692	vs-basic-lissajous	-0.16806784
-3.636388	max~	-0.20853256
-4.112241	myinit	-0.26507026
-4.242692	onoff12x	-0.16806784
-4.112241	ctxfiles/mr	-0.26507026
-4.242692	recorder-backend	-0.5351962
-4.242692	rain_one_out	-0.16806784
-4.242692	c_playlist	-0.16806784
-4.0182853	channel~	-0.27222455
-4.242692	aoo_unpack~	-0.16806784
-4.242692	wrap2~	-0.16806784
-3.8510334	dj-eq	-0.3710047
-3.8510334	args	-0.19364437
-4.112241	gf/io_generate	-0.26507026
-4.242692	johsdelay	-0.16806784
-4.0182853	loop	-0.20431216
-4.242692	Ccircle	-0.16806784
-4.242692	g_joystick	-0.16806784
-4.112241	abs_multixyfx1	-0.26507026
-4.242692	OUT/BUS/parameters	-0.16806784
-4.242692	sgObjStateIn	-0.16806784
-4.242692	else/bandpass~	-0.16806784
-4.242692	gm-midi-ports	-0.26507026
-4.242692	misc/vu.meter~	-0.16806784
-4.242692	aasquare/aaosc~	-0.16806784
-4.112241	inmeter	-0.26507026
-4.242692	comb1	-0.16806784
-4.112241	sp-arduino	-0.23027262
-4.242692	onoff34	-0.16806784
-4.242692	seq.timing.master	-0.16806784
-4.0182853	FM_Osc	-0.16806789
-4.242692	pp.fft-partconv-st~	-0.16806784
-4.242692	pix_colormatrix	-0.16806784
-4.0182853	pix_draw	-0.3133474
-4.242692	xgroove~	-0.23027262
-4.242692	mik-timer	-0.16806784
-4.112241	effects/later~	-0.26507026
-4.242692	randomp	-0.26507026
-4.242692	deny	-0.16806784
-4.112241	rain	-0.23027262
-4.242692	si_gem_rc4	-0.16806784
-4.112241	hoa.projector~	-0.26507026
-4.242692	../../ehu/splayer~	-0.16806784
-4.242692	cyclone/matrix~	-0.23027262
-4.112241	setosc	-0.23027262
-4.112241	biquadm.mmb~	-0.24929884
-4.242692	internals-keyswitch	-0.16806784
-4.242692	ofelia_arraySlider	-0.16806784
-4.112241	cpmlooper	-0.26507026
-4.0182853	teapot	-0.23027262
-4.242692	TETRA_src	-0.16806784
-4.112241	midiseq	-0.24385892
-4.242692	vj_form	-0.16806784
-4.242692	karplusplus~	-0.16806784
-4.242692	comport/comport	-0.16806784
-4.242692	mtcf-visibility	-0.16806784
-4.112241	spectrldly	-0.23027262
-4.242692	routingcell	-0.26507026
-4.242692	3dRange	-0.16806784
-4.242692	cyclone/prob	-0.16806784
-4.242692	hp5_butt~	-0.16806784
-4.242692	udpclient	-0.16806784
-3.636388	#print	-0.6813242
-4.242692	STPcolorbar4	-0.3133474
-4.242692	jjs/jjs_mapping	-0.16806784
-4.242692	johsflanger	-0.26507026
-4.0182853	prepender	-0.29338807
-4.242692	c_ead	-0.16806784
-4.242692	flow.tee~	-0.16806784
-4.0182853	str	-0.23466094
-4.112241	envelope1	-0.26507026
-4.242692	subt	-0.16806784
-4.242692	midiSenderSlider	-0.16806784
-4.242692	importsoundk~	-0.16806784
-4.242692	reverbk~	-0.16806784
-4.242692	distok~	-0.16806784
-4.242692	tremolok~	-0.16806784
-4.242692	KontrolModule	-0.3133474
-4.242692	ml-mlp	-0.3133474
-4.242692	ctxfiles/ou	-0.43828616
-4.242692	midi_player	-0.26507026
-4.242692	LED	-0.26507026
-4.112241	nblsaw~	-0.26507026
-4.242692	rand~	-0.16806784
-4.242692	play~	-0.16806784
-4.242692	rg	-0.29338807
-4.242692	calrange	-0.16806784
-4.242692	cpole~,	-0.16806784
-4.242692	rev1~,	-0.16806784
-4.242692	mob/lcd	-0.23027262
-4.242692	metronome360	-0.16806784
-4.242692	hp1~	-0.16806784
-4.242692	\$1reverb_2_4_4~	-0.16806784
-4.0182853	volume~	-0.43828616
-4.242692	a.playwav1~	-0.16806784
-4.242692	stopwatch	-0.16806784
-4.242692	an_\$3_48~	-0.16806784
-4.112241	fakefilter2~	-0.26507026
-4.112241	../cmp/envelope	-0.16806784
-4.242692	../cmp/crossfade_st	-0.16806784
-4.242692	pvoc_abs	-0.16806784
-4.242692	GEM-Center_sfgem	-0.26507026
-4.112241	gui_menu_page	-0.16806784
-4.242692	_vumeter	-0.16806784
-4.242692	other/vl2s	-0.16806784
-4.112241	abs/granula_control	-0.6143774
-4.242692	muxer	-0.16806784
-4.242692	array-iterator	-0.16806784
-4.112241	else/impseq~	-0.16806784
-4.242692	else/tri~	-0.16806784
-4.242692	else/sig2float~	-0.16806784
-4.242692	sdConnectFrom	-0.16806784
-4.242692	openPath	-0.16806784
-4.0182853	mapping/tolist	-0.21386641
-4.242692	arduino/arduino_in	-0.16806789
-4.112241	audio/recloop	-0.16806784
-4.112241	handlers/mono_module	-0.27222455
-4.0182853	ehu/gem/win	-0.16806789
-4.0182853	pv	-0.23027262
-4.242692	changed	-0.26507026
-3.8510334	4	-0.27222455
-4.112241	sdObjGroupsInterface_obj	-0.43828616
-4.242692	polytouchin,	-0.16806784
-4.112241	polytouchout	-0.3133474
-4.242692	pix_mask	-0.16806784
-4.242692	mixer_channel	-0.16806784
-4.242692	pan_mono	-0.16806784
-4.242692	vu_	-0.26507026
-4.112241	audioroute~	-0.16806784
-4.242692	rsk_streamplayer	-0.16806784
-4.112241	map-api	-0.3133474
-4.242692	brickwall	-0.16806784
-4.242692	NoteLED	-0.16806784
-4.242692	abs_tanhdist1	-0.16806784
-4.112241	else/dir	-0.16806784
-4.112241	seq-counter	-0.16806784
-4.112241	iir	-0.23027262
-4.242692	mtl/3dMove	-0.16806784
-4.242692	gl.oscillo~	-0.16806784
-4.242692	gverb	-0.16806784
-4.242692	recorder_rain	-0.16806784
-3.7305827	synths/looper~	-0.4534188
-4.0182853	gpio_output	-0.43828616
-4.242692	dust	-0.16806784
-4.242692	xfade~	-0.16806784
-4.242692	test_dollarg	-0.16806784
-4.242692	TaViPaCoPd,	-0.16806784
-4.112241	mtl/adsr~	-0.16806784
-4.112241	samplevoice~	-0.23027262
-4.242692	b.highpass~	-0.16806784
-4.112241	b.resonator~	-0.16806784
-4.242692	oneshot_sync~	-0.16806784
-4.242692	pdkm/dknoiz~	-0.16806784
-4.242692	ml_track_manager	-0.16806784
-4.242692	gs~	-0.16806784
-4.242692	Decode	-0.16806784
-4.112241	u_samplekit	-0.23027262
-4.0182853	soundinput	-0.23027262
-4.0182853	ofelia_toggle	-0.23027262
-4.112241	gameTone~,	-0.26507026
-4.242692	funnel	-0.26507026
-4.112241	instrument	-0.21386641
-3.7305827	mavg	-0.23027262
-4.242692	covariance	-0.16806784
-4.112241	ctl/bFilteredCtlIn	-0.23027262
-4.242692	p/fx/myTremoro	-0.16806784
-4.242692	p/dry_wet	-0.16806784
-4.242692	pingpong	-0.16806784
-4.242692	STPcolorbar10	-0.26507026
-4.242692	mtl/gemsMouse	-0.16806784
-4.242692	mtl/gemsFont-NoticeStd	-0.16806784
-4.242692	pmpd/link	-0.16806784
-4.242692	pmpd/mass	-0.16806784
-4.242692	else/canvas.wname	-0.16806784
-4.242692	ctxfiles/m2filt	-0.6813242
-4.242692	aoo_client	-0.24385892
-4.242692	hex2dec	-0.16806784
-4.242692	list-rdrip	-0.16806784
-4.112241	markovChain	-0.16806784
-4.112241	sequencer	-0.16806784
-4.112241	submatrix2~	-0.16806789
-3.7305827	list-random	-0.26982665
-4.242692	hw.display	-0.16806784
-4.0182853	chair.feedback-cancellation~	-0.16806789
-4.242692	tuning_Equal	-0.16806784
-4.242692	sample-player~	-0.16806784
-4.242692	allpass.rev~	-0.16806784
-4.112241	p-t-player~	-0.16806784
-4.242692	sgScript	-0.23027262
-4.242692	sgPrepend	-0.26507026
-4.112241	ggee/image	-0.16806784
-4.242692	onoff45	-0.16806784
-4.112241	127	-0.16806784
-4.112241	supermegamasterimprovisador	-0.23027262
-4.242692	dq~	-0.16806784
-4.242692	t-s~	-0.16806784
-4.112241	master-ticks	-0.3133474
-4.0182853	pix_snap	-0.27222455
-4.242692	#from_pix	-0.16806784
-4.112241	#downscale_by	-0.26507026
-4.0182853	#see	-0.23027262
-4.0182853	cyclone/svf~	-0.27222455
-4.242692	STPcolorbar5	-0.16806784
-4.112241	elooper~	-0.30160773
-4.242692	deb	-0.16806784
-4.112241	../../core/s_add-synth-core-001	-0.26507026
-4.242692	data.param.gui	-0.16806784
-4.112241	dist~	-0.16806784
-4.242692	rev3~,	-0.16806784
-4.242692	sampmsg_unpack	-0.16806784
-4.242692	samp_play	-0.16806784
-4.242692	u_splicetrans	-0.16806784
-4.112241	phrases-gui-generator	-0.26507026
-4.0182853	sdPropertySym	-0.21386641
-4.242692	serial_print	-0.16806784
-4.242692	smlib/hist	-0.16806784
-4.242692	pdmus/midi-sync	-0.16806784
-4.242692	iemnet/udpreceive	-0.16806784
-4.242692	OSC/unpackOSC	-0.16806784
-4.112241	OSC/routeOSC	-0.16806784
-4.242692	vline~,	-0.16806784
-4.242692	state_io	-0.16806784
-4.242692	SOUND_SPOTTER_LIGHT	-0.16806784
-4.242692	#window	-0.16806784
-4.0182853	spigot,	-0.24929884
-4.242692	c.bang	-0.3133474
-4.112241	hoa.map	-0.21386641
-4.112241	sampler-voice	-0.27222455
-4.242692	ui.k	-0.16806784
-4.242692	synth.kick2~	-0.16806784
-4.242692	ui.hgain~	-0.16806784
-4.242692	j-counter	-0.16806784
-4.242692	analog/parse,	-0.16806784
-4.242692	pd-mrpeach/net/udpreceive	-0.3133474
-4.242692	mac_externals/mrpeach/routeOSC	-0.26507026
-4.242692	tonalize	-0.16806784
-4.0182853	world_light	-0.5152626
-4.112241	mtcf-matrix	-0.23027262
-4.242692	mob/hfader	-0.16806784
-4.242692	analog/parse	-0.16806784
-4.112241	ctxfiles/sp	-0.26507026
-4.242692	muteall-signal~	-0.16806784
-4.112241	_noise~	-0.16806784
-4.0182853	myOSC	-0.23027262
-4.242692	unauthorized/probalizer	-0.16806784
-4.242692	h_list	-0.16806784
-4.242692	Randomize,	-0.16806784
-4.242692	audio-scratch	-0.16806784
-4.242692	audio-comp	-0.16806784
-4.242692	synth-moog	-0.16806784
-4.242692	cloudranger~	-0.26507026
-4.242692	err-corr	-0.16806784
-4.242692	else/play.file~	-0.16806784
-4.242692	prop_perturb	-0.26507026
-4.242692	pd_demux	-0.16806784
-4.242692	c.meter~	-0.16806784
-4.242692	oscinput	-0.16806784
